{"learner":{"attributes":{"scikit_learn":"{\"_estimator_type\": \"regressor\"}"},"feature_names":["temperature_2m_mean","precipitation_sum","wind_speed_10m_max","wind_direction_10m_dominant"],"feature_types":["float","float","float","float"],"gradient_booster":{"model":{"cats":{"enc":[],"feature_segments":[],"sorted_idx":[]},"gbtree_model_param":{"num_parallel_tree":"1","num_trees":"100"},"iteration_indptr":[0,1,2,3,4,5,6,7,8,9,10,11,12,13,14,15,16,17,18,19,20,21,22,23,24,25,26,27,28,29,30,31,32,33,34,35,36,37,38,39,40,41,42,43,44,45,46,47,48,49,50,51,52,53,54,55,56,57,58,59,60,61,62,63,64,65,66,67,68,69,70,71,72,73,74,75,76,77,78,79,80,81,82,83,84,85,86,87,88,89,90,91,92,93,94,95,96,97,98,99,100],"tree_info":[0,0,0,0,0,0,0,0,0,0,0,0,0,0,0,0,0,0,0,0,0,0,0,0,0,0,0,0,0,0,0,0,0,0,0,0,0,0,0,0,0,0,0,0,0,0,0,0,0,0,0,0,0,0,0,0,0,0,0,0,0,0,0,0,0,0,0,0,0,0,0,0,0,0,0,0,0,0,0,0,0,0,0,0,0,0,0,0,0,0,0,0,0,0,0,0,0,0,0,0],"trees":[{"base_weights":[1.6053518E-7,-2.2231216E0,9.497021E0,-2.987745E0,8.0376405E-1,4.333723E1,8.505792E0,-3.7486582E0,-1.0482635E0,-4.972304E-3,1.143358E1,1.7100878E1,2.4008768E0,6.040259E0,1.6428696E1,-4.146165E0,-1.9753991E0,-2.0813663E0,3.683723E1,-1.2239655E0,4.5055513E0,6.001315E0,4.382372E-3,3.7132802E0,9.391391E0,-8.9883137E-1,1.8172268E1,9.008765E-1,-4.1910853E0,-3.0995739E0,8.17978E-1,-3.193029E-1,-3.058526E0,1.7175877E1,-5.9912354E-1,-2.2145948E0,2.5054781E0,6.067978E0,-1.3953254E0,-1.1991236E0,8.011686E-1,6.2480907E0,-4.46816E-1,5.1011686E0,8.414757E0,1.4192978E1,6.9682255E0,-1.3551936E0,-9.2050177E-1,1.0508765E0,-1.0118079E0,2.4614024E0,-6.9839317E-1,-6.4115435E-1,3.101461E0,-9.960986E-1,2.2508767E0,1.5008765E0,-7.2758764E-1,-5.4839313E-1,3.7214024E0,-2.9883137E-1,2.144485E0,1.0116864E-1,-7.988314E-1,5.7309806E-1,3.8323877E0,-8.233567E-1,1.7264609E0,1.847329E0,3.7106848E0,3.2323875E0,6.526315E0],"categories":[],"categories_nodes":[],"categories_segments":[],"categories_sizes":[],"default_left":[0,0,0,0,0,0,0,0,0,0,0,0,0,0,0,0,0,0,0,0,0,0,0,0,0,0,0,0,0,0,0,0,0,0,0,0,0,0,0,0,0,0,0,0,0,0,0,0,0,0,0,0,0,0,0,0,0,0,0,0,0,0,0,0,0,0,0,0,0,0,0,0,0],"id":0,"left_children":[1,3,5,7,9,11,13,15,17,19,21,-1,-1,23,25,27,29,31,33,35,37,-1,39,41,43,-1,45,-1,47,49,51,53,55,-1,-1,57,59,61,63,-1,-1,65,67,-1,69,71,-1,-1,-1,-1,-1,-1,-1,-1,-1,-1,-1,-1,-1,-1,-1,-1,-1,-1,-1,-1,-1,-1,-1,-1,-1,-1,-1],"loss_changes":[1.2688932E4,1.1295278E3,3.45533E3,5.7014746E2,8.51132E2,9.924136E2,2.0885947E3,1.8847217E2,4.4211685E3,5.1685626E2,6.856142E2,0E0,0E0,6.435542E2,9.3502734E2,8.548462E1,1.689683E2,1.8670148E2,2.4928262E3,2.7894135E2,1.928606E2,0E0,5.33489E1,5.616796E2,1.17128174E2,0E0,1.5311523E2,0E0,6.8916016E1,8.033853E1,3.9091174E2,7.9705646E2,2.1846307E2,0E0,0E0,1.0185547E2,7.0903906E2,1.2922223E2,1.1877555E1,0E0,0E0,9.098446E2,3.1503702E2,0E0,2.1834644E2,1.7916577E2,0E0,0E0,0E0,0E0,0E0,0E0,0E0,0E0,0E0,0E0,0E0,0E0,0E0,0E0,0E0,0E0,0E0,0E0,0E0,0E0,0E0,0E0,0E0,0E0,0E0,0E0,0E0],"parents":[2147483647,0,0,1,1,2,2,3,3,4,4,5,5,6,6,7,7,8,8,9,9,10,10,13,13,14,14,15,15,16,16,17,17,18,18,19,19,20,20,22,22,23,23,24,24,26,26,28,28,29,29,30,30,31,31,32,32,35,35,36,36,37,37,38,38,41,41,42,42,44,44,45,45],"right_children":[2,4,6,8,10,12,14,16,18,20,22,-1,-1,24,26,28,30,32,34,36,38,-1,40,42,44,-1,46,-1,48,50,52,54,56,-1,-1,58,60,62,64,-1,-1,66,68,-1,70,72,-1,-1,-1,-1,-1,-1,-1,-1,-1,-1,-1,-1,-1,-1,-1,-1,-1,-1,-1,-1,-1,-1,-1,-1,-1,-1,-1],"split_conditions":[2.3389582E1,2.2362497E1,2.3408333E1,1.0436033E2,2.1152872E1,1E-1,2.5837502E1,2.7000003E0,2.1103033E1,2.7000003E0,1E-1,1.7100878E1,2.4008768E0,1.6981165E1,1.0742848E1,2.1134293E0,1.7429354E1,2.4019098E2,2.0406248E1,1.1712291E2,1.665754E1,6.001315E0,2.2657131E1,1.4769874E1,1.725373E1,-8.9883137E-1,9.153912E1,9.008765E-1,2.1731247E1,3.0999992E0,1.7968472E1,2.1846518E2,2.0211363E1,1.7175877E1,-5.9912354E-1,8.827344E0,1.4319901E1,1.0163227E1,1.909358E1,-1.1991236E0,8.011686E-1,1.3121493E1,9E-1,5.1011686E0,2.0883104E1,2.8308336E1,6.9682255E0,-1.3551936E0,-9.2050177E-1,1.0508765E0,-1.0118079E0,2.4614024E0,-6.9839317E-1,-6.4115435E-1,3.101461E0,-9.960986E-1,2.2508767E0,1.5008765E0,-7.2758764E-1,-5.4839313E-1,3.7214024E0,-2.9883137E-1,2.144485E0,1.0116864E-1,-7.988314E-1,5.7309806E-1,3.8323877E0,-8.233567E-1,1.7264609E0,1.847329E0,3.7106848E0,3.2323875E0,6.526315E0],"split_indices":[0,0,0,3,2,1,0,1,2,1,1,0,0,2,2,3,2,3,0,3,2,0,2,2,2,0,3,0,0,1,2,3,2,0,0,2,2,2,2,0,0,2,1,0,2,0,0,0,0,0,0,0,0,0,0,0,0,0,0,0,0,0,0,0,0,0,0,0,0,0,0,0,0],"split_type":[0,0,0,0,0,0,0,0,0,0,0,0,0,0,0,0,0,0,0,0,0,0,0,0,0,0,0,0,0,0,0,0,0,0,0,0,0,0,0,0,0,0,0,0,0,0,0,0,0,0,0,0,0,0,0,0,0,0,0,0,0,0,0,0,0,0,0,0,0,0,0,0,0],"sum_hessian":[5.99E2,4.86E2,1.13E2,3.88E2,9.8E1,2E0,1.11E2,2.78E2,1.1E2,9.2E1,6E0,1E0,1E0,8.6E1,2.5E1,2.26E2,5.2E1,1.08E2,2E0,7.3E1,1.9E1,3E0,3E0,5.2E1,3.4E1,2E0,2.3E1,1E0,2.25E2,3.7E1,1.5E1,3.9E1,6.9E1,1E0,1E0,5.8E1,1.5E1,1.5E1,4E0,1E0,2E0,3.2E1,2E1,2E0,3.2E1,1.5E1,8E0,1.72E2,5.3E1,1E0,3.6E1,4E0,1.1E1,3.4E1,5E0,6.8E1,1E0,1E0,5.7E1,1.1E1,4E0,2E0,1.3E1,2E0,2E0,2E1,1.2E1,1.5E1,5E0,2.2E1,1E1,1.2E1,3E0],"tree_param":{"num_deleted":"0","num_feature":"4","num_nodes":"73","size_leaf_vector":"1"}},{"base_weights":[1.3785732E-1,-1.4916743E0,7.0978928E0,-2.015193E0,9.049073E-1,3.6836643E1,6.237945E0,-2.608132E0,-6.264489E-1,2.1956028E-1,8.803986E0,1.4535746E1,2.040745E0,4.4117184E0,1.2108859E1,-2.832436E0,2.93164E-1,-1.4263468E0,3.1311646E1,-9.9239004E-1,2.4687243E0,4.651019E0,-9.6421E-2,2.4190576E0,6.5883856E0,-7.190651E-1,1.34175415E1,-3.616817E0,-2.2863307E0,-1.8806614E0,7.6255374E0,-1.5465274E0,1.9132451E0,1.4599496E1,-5.0925493E-1,3.8914185E0,-1.926344E0,-1.4343241E0,4.598451E0,-1.019255E0,2.1364498E0,4.5071626E0,-2.3360436E0,1.0203662E1,5.402753E0,9.195155E0,1.5776735E1,-9.8191506E-1,-1.3757848E0,7.657451E-1,-7.0020497E-1,-7.80131E-1,7.035302E-1,-3.278113E-1,4.14058E0,2.7813253E-1,-5.9161836E-1,-1.8998538E-1,1.3608502E0,-9.592104E-1,-2.1923678E-1,-7.19014E-1,-2.3215175E-1,2.2923725E0,-1.6216221E-1,1.8070121E-1,7.807012E-1,4.0935573E-1,2.7711105E0,-1.0969701E0,6.628611E-1,1.6935399E0,5.2317033E0,1.1444471E0,3.5737898E0,3.1611977E0,-6.339817E-1,4.9869423E0,7.160184E-1],"categories":[],"categories_nodes":[],"categories_segments":[],"categories_sizes":[],"default_left":[0,0,0,0,0,0,0,0,0,0,0,0,0,0,0,0,0,0,0,0,0,0,0,0,0,0,0,0,0,0,0,0,0,0,0,0,0,0,0,0,0,0,0,0,0,0,0,0,0,0,0,0,0,0,0,0,0,0,0,0,0,0,0,0,0,0,0,0,0,0,0,0,0,0,0,0,0,0,0],"id":1,"left_children":[1,3,5,7,9,11,13,15,17,19,21,-1,-1,23,25,27,29,31,33,35,37,-1,39,41,43,-1,45,47,49,51,53,55,-1,-1,-1,57,59,61,63,-1,65,67,69,71,73,75,77,-1,-1,-1,-1,-1,-1,-1,-1,-1,-1,-1,-1,-1,-1,-1,-1,-1,-1,-1,-1,-1,-1,-1,-1,-1,-1,-1,-1,-1,-1,-1,-1],"loss_changes":[6.815547E3,6.128407E2,2.6856255E3,3.277422E2,4.7446466E2,7.170188E2,1.1474004E3,1.8304688E2,3.1358738E3,2.2597166E2,4.1888715E2,0E0,0E0,3.614126E2,5.2572925E2,1.0310303E2,3.490663E2,1.21469406E2,1.8010671E3,2.5380386E2,2.4765607E2,0E0,3.6742306E1,4.7719897E2,1.2061401E2,0E0,9.400488E1,1.9971313E1,4.195343E1,5.7805443E1,2.8431805E2,1.2603696E2,0E0,0E0,0E0,2.9128342E1,6.7564026E1,5.137411E0,3.0123102E2,0E0,5.766859E-1,4.7791785E2,9.811749E1,1.9839734E2,2.9568402E2,1.8922449E2,1.1899219E2,0E0,0E0,0E0,0E0,0E0,0E0,0E0,0E0,0E0,0E0,0E0,0E0,0E0,0E0,0E0,0E0,0E0,0E0,0E0,0E0,0E0,0E0,0E0,0E0,0E0,0E0,0E0,0E0,0E0,0E0,0E0,0E0],"parents":[2147483647,0,0,1,1,2,2,3,3,4,4,5,5,6,6,7,7,8,8,9,9,10,10,13,13,14,14,15,15,16,16,17,17,18,18,19,19,20,20,22,22,23,23,24,24,26,26,27,27,28,28,29,29,30,30,31,31,35,35,36,36,37,37,38,38,40,40,41,41,42,42,43,43,44,44,45,45,46,46],"right_children":[2,4,6,8,10,12,14,16,18,20,22,-1,-1,24,26,28,30,32,34,36,38,-1,40,42,44,-1,46,48,50,52,54,56,-1,-1,-1,58,60,62,64,-1,66,68,70,72,74,76,78,-1,-1,-1,-1,-1,-1,-1,-1,-1,-1,-1,-1,-1,-1,-1,-1,-1,-1,-1,-1,-1,-1,-1,-1,-1,-1,-1,-1,-1,-1,-1,-1],"split_conditions":[2.3389582E1,2.2418749E1,2.3408333E1,1.0177801E2,2.1152872E1,1E-1,2.5837502E1,9.299999E0,2.1103033E1,1.0066665E2,1E-1,1.4535746E1,2.040745E0,1.6412603E1,1.0742848E1,2.0627083E1,8.145343E1,2.0211363E1,2.0406248E1,6.607459E1,1.2886039E1,4.651019E0,2.2657131E1,1.4769874E1,7.8845985E1,-7.190651E-1,8.280346E1,2.0043749E1,2.1134293E0,2.1760416E1,2.0702082E1,2.0235418E1,1.9132451E0,1.4599496E1,-5.0925493E-1,2.2481247E1,1.5716793E1,2.269375E1,1.51884165E1,-1.019255E0,2.249375E1,1.3121493E1,9E-1,7.805502E1,2.3525661E1,8.145343E1,2.0150354E1,-9.8191506E-1,-1.3757848E0,7.657451E-1,-7.0020497E-1,-7.80131E-1,7.035302E-1,-3.278113E-1,4.14058E0,2.7813253E-1,-5.9161836E-1,-1.8998538E-1,1.3608502E0,-9.592104E-1,-2.1923678E-1,-7.19014E-1,-2.3215175E-1,2.2923725E0,-1.6216221E-1,1.8070121E-1,7.807012E-1,4.0935573E-1,2.7711105E0,-1.0969701E0,6.628611E-1,1.6935399E0,5.2317033E0,1.1444471E0,3.5737898E0,3.1611977E0,-6.339817E-1,4.9869423E0,7.160184E-1],"split_indices":[0,0,0,3,2,1,0,1,2,3,1,0,0,2,2,0,3,2,0,3,2,0,2,2,3,0,3,0,3,0,0,0,0,0,0,0,2,0,2,0,0,2,1,3,2,3,2,0,0,0,0,0,0,0,0,0,0,0,0,0,0,0,0,0,0,0,0,0,0,0,0,0,0,0,0,0,0,0,0],"split_type":[0,0,0,0,0,0,0,0,0,0,0,0,0,0,0,0,0,0,0,0,0,0,0,0,0,0,0,0,0,0,0,0,0,0,0,0,0,0,0,0,0,0,0,0,0,0,0,0,0,0,0,0,0,0,0,0,0,0,0,0,0,0,0,0,0,0,0,0,0,0,0,0,0,0,0,0,0,0,0],"sum_hessian":[5.99E2,4.86E2,1.13E2,3.99E2,8.7E1,2E0,1.11E2,2.79E2,1.2E2,8.1E1,6E0,1E0,1E0,8.6E1,2.5E1,2.59E2,2E1,1.18E2,2E0,5.3E1,2.8E1,3E0,3E0,4.6E1,4E1,2E0,2.3E1,1.04E2,1.55E2,1.6E1,4E0,1.17E2,1E0,1E0,1E0,8E0,4.5E1,1E1,1.8E1,1E0,2E0,3.2E1,1.4E1,8E0,3.2E1,1E1,1.3E1,8E1,2.4E1,1E0,1.54E2,1.4E1,2E0,2E0,2E0,1.7E1,1E2,1E0,7E0,2.1E1,2.4E1,3E0,7E0,1.1E1,7E0,1E0,1E0,2E1,1.2E1,1.1E1,3E0,6E0,2E0,2.7E1,5E0,9E0,1E0,1.2E1,1E0],"tree_param":{"num_deleted":"0","num_feature":"4","num_nodes":"79","size_leaf_vector":"1"}},{"base_weights":[1.9879352E-1,-9.9715227E-1,5.306046E0,-1.3678001E0,6.9894207E-1,3.1311146E1,4.5621057E0,-1.8068289E0,-2.5052774E-1,1.6797815E-1,6.818956E0,1.2355383E1,1.7346333E0,3.8120196E0,1.2722865E1,-1.9592937E0,5.805228E-1,-9.679005E-1,2.6614897E1,9.3683636E-1,-1.8450423E0,3.6045394E0,-8.195794E-2,3.0082953E0,1.1066199E1,9.1838695E-2,4.2710075E0,-2.3964872E0,-1.5300215E0,3.9605794E0,-9.384972E-1,-4.1822872E-1,-2.6828587E0,1.2409571E1,-4.3286672E-1,-4.8096806E-1,3.0835834E0,7.4290013E-1,-2.1540291E0,-8.663668E-1,1.8159822E0,6.154226E-1,5.1495724E0,1.2701901E1,9.046778E-1,7.425856E-1,-7.471435E-1,3.118165E-1,-5.3429544E-1,-5.3978705E-1,1.10349E0,-2.237637E-1,8.608789E-1,-1.1993691E0,-2.1177094E-1,-4.0307638E-1,1.2599498E0,5.6988106E0,4.6974698E-1,-7.897458E-1,-2.3391724E-4,1.5359603E-1,6.63596E-1,1.5341686E0,-2.3286171E-1,2.5208955E0,1.2378434E0,9.0350837E-1,4.0967927E0],"categories":[],"categories_nodes":[],"categories_segments":[],"categories_sizes":[],"default_left":[0,0,0,0,0,0,0,0,0,0,0,0,0,0,0,0,0,0,0,0,0,0,0,0,0,0,0,0,0,0,0,0,0,0,0,0,0,0,0,0,0,0,0,0,0,0,0,0,0,0,0,0,0,0,0,0,0,0,0,0,0,0,0,0,0,0,0,0,0],"id":2,"left_children":[1,3,5,7,9,11,13,15,17,19,21,-1,-1,23,25,27,29,31,33,35,37,-1,39,41,43,-1,-1,45,47,-1,49,51,53,-1,-1,55,57,-1,59,-1,61,63,65,67,-1,-1,-1,-1,-1,-1,-1,-1,-1,-1,-1,-1,-1,-1,-1,-1,-1,-1,-1,-1,-1,-1,-1,-1,-1],"loss_changes":[3.6700894E3,3.0711032E2,2.0626277E3,1.957533E2,2.848111E2,5.180459E2,6.3708276E2,1.05601746E2,2.2228284E3,1.2864215E2,2.5199323E2,0E0,0E0,5.7306714E2,1.6481274E2,4.7005615E1,3.5748904E2,1.04456345E2,1.3012708E3,1.8410315E2,3.60448E1,0E0,2.6546312E1,4.8359204E2,9.338013E1,0E0,0E0,6.660779E1,9.1482056E1,0E0,7.417813E1,9.4784454E1,6.7371704E1,0E0,0E0,1.5503963E2,5.498864E2,0E0,2.2663147E1,0E0,4.166546E-1,2.9193866E2,1.318097E2,3.283374E1,0E0,0E0,0E0,0E0,0E0,0E0,0E0,0E0,0E0,0E0,0E0,0E0,0E0,0E0,0E0,0E0,0E0,0E0,0E0,0E0,0E0,0E0,0E0,0E0,0E0],"parents":[2147483647,0,0,1,1,2,2,3,3,4,4,5,5,6,6,7,7,8,8,9,9,10,10,13,13,14,14,15,15,16,16,17,17,18,18,19,19,20,20,22,22,23,23,24,24,27,27,28,28,30,30,31,31,32,32,35,35,36,36,38,38,40,40,41,41,42,42,43,43],"right_children":[2,4,6,8,10,12,14,16,18,20,22,-1,-1,24,26,28,30,32,34,36,38,-1,40,42,44,-1,-1,46,48,-1,50,52,54,-1,-1,56,58,-1,60,-1,62,64,66,68,-1,-1,-1,-1,-1,-1,-1,-1,-1,-1,-1,-1,-1,-1,-1,-1,-1,-1,-1,-1,-1,-1,-1,-1,-1],"split_conditions":[2.3389582E1,2.2418749E1,2.3408333E1,1.0436033E2,2.1152872E1,1E-1,2.7310415E1,1.02E1,2.1103033E1,1.665754E1,1E-1,1.2355383E1,1.7346333E0,2.7568225E2,2.6370749E1,2.0889582E1,1.0700003E1,3.278608E2,2.0406248E1,1.4319901E1,2.2456251E1,3.6045394E0,2.2657131E1,1.6412603E1,3.1608084E2,9.1838695E-2,4.2710075E0,9.085988E0,2.1012499E1,3.9605794E0,2.1760416E1,1.8199999E1,2.1177084E1,1.2409571E1,-4.3286672E-1,7.1E0,1.4759999E1,7.4290013E-1,9.828961E1,-8.663668E-1,2.249375E1,5.833554E1,7.8845985E1,1.0464798E1,9.046778E-1,7.425856E-1,-7.471435E-1,3.118165E-1,-5.3429544E-1,-5.3978705E-1,1.10349E0,-2.237637E-1,8.608789E-1,-1.1993691E0,-2.1177094E-1,-4.0307638E-1,1.2599498E0,5.6988106E0,4.6974698E-1,-7.897458E-1,-2.3391724E-4,1.5359603E-1,6.63596E-1,1.5341686E0,-2.3286171E-1,2.5208955E0,1.2378434E0,9.0350837E-1,4.0967927E0],"split_indices":[0,0,0,3,2,1,0,1,2,2,1,0,0,3,3,0,1,3,0,2,0,0,2,2,3,0,0,2,0,0,0,1,0,0,0,1,2,0,3,0,0,3,3,2,0,0,0,0,0,0,0,0,0,0,0,0,0,0,0,0,0,0,0,0,0,0,0,0,0],"split_type":[0,0,0,0,0,0,0,0,0,0,0,0,0,0,0,0,0,0,0,0,0,0,0,0,0,0,0,0,0,0,0,0,0,0,0,0,0,0,0,0,0,0,0,0,0,0,0,0,0,0,0,0,0,0,0,0,0,0,0,0,0,0,0,0,0,0,0,0,0],"sum_hessian":[5.99E2,4.86E2,1.13E2,3.99E2,8.7E1,2E0,1.11E2,2.86E2,1.13E2,8.1E1,6E0,1E0,1E0,1.03E2,8E0,2.69E2,1.7E1,1.11E2,2E0,5.9E1,2.2E1,3E0,3E0,9.4E1,9E0,1E0,7E0,1.31E2,1.38E2,1E0,1.6E1,8.5E1,2.6E1,1E0,1E0,3.6E1,2.3E1,1E0,2.1E1,1E0,2E0,4.5E1,4.9E1,7E0,2E0,2E0,1.29E2,1.2E1,1.26E2,1.4E1,2E0,7.8E1,7E0,1.5E1,1.1E1,3.1E1,5E0,1E0,2.2E1,1.7E1,4E0,1E0,1E0,1E1,3.5E1,1E1,3.9E1,1E0,6E0],"tree_param":{"num_deleted":"0","num_feature":"4","num_nodes":"69","size_leaf_vector":"1"}},{"base_weights":[2.3157468E-1,-6.4454937E-1,3.9722838E0,-7.890393E-1,2.0571864E0,2.6614473E1,3.33033E0,-1.0409869E0,3.436332E-1,-7.8713495E-1,1.0548136E1,1.0502075E1,1.4744382E0,1.3417801E0,4.9708915E0,-1.2133169E0,1.443645E-1,-1.8019909E-1,1.8518893E0,-1.9272993E0,7.836448E0,4.16101E0,-2.1206965E0,4.1265564E0,9.390766E0,-1.3025442E-1,-1.3208306E0,-4.372208E0,1.1322862E0,2.8766007E0,-6.6825265E-1,-8.2556605E-1,6.6406317E0,7.331796E-1,-2.7461216E0,2.9623454E0,5.640566E-1,1.5315857E0,9.0037565E0,-5.535929E0,-6.708449E-2,1.6054513E0,6.0058885E0,7.806287E-2,1.0499559E1,-3.3933908E-1,6.2540936E-1,-5.0494814E-1,-2.726172E-1,-4.717105E-1,-1.8892819E0,1.5493771E-1,3.864806E0,1.5169826E0,2.8314868E-1,-3.152426E-1,1.370303E0,1.3963555E0,-4.648399E-1,4.681558E0,3.1547374E-1,-8.841116E-1,1.3055664E-1,3.391874E-2,4.272529E0,6.3843757E-1,2.8593774E0,-3.7661693E-1,-1.774222E0,-1.2679286E0,3.6536223E-1,7.079227E-1,-1.3383498E0,4.2680078E0,1.1377981E0,3.3521492E0,8.669501E-1],"categories":[],"categories_nodes":[],"categories_segments":[],"categories_sizes":[],"default_left":[0,0,0,0,0,0,0,0,0,0,0,0,0,0,0,0,0,0,0,0,0,0,0,0,0,0,0,0,0,0,0,0,0,0,0,0,0,0,0,0,0,0,0,0,0,0,0,0,0,0,0,0,0,0,0,0,0,0,0,0,0,0,0,0,0,0,0,0,0,0,0,0,0,0,0,0,0],"id":3,"left_children":[1,3,5,7,9,11,13,15,17,19,-1,-1,-1,21,23,25,27,29,31,33,35,37,39,41,43,45,47,49,51,53,55,57,59,-1,61,-1,-1,63,65,67,69,71,73,-1,75,-1,-1,-1,-1,-1,-1,-1,-1,-1,-1,-1,-1,-1,-1,-1,-1,-1,-1,-1,-1,-1,-1,-1,-1,-1,-1,-1,-1,-1,-1,-1,-1],"loss_changes":[1.9689554E3,1.9173521E2,1.5683829E3,1.324859E2,2.381584E3,3.742881E2,3.587119E2,7.7594086E1,6.748993E1,2.5107845E2,0E0,0E0,0E0,5.164231E2,1.8889185E2,3.837091E1,2.2358957E2,9.7402756E1,2.8755847E2,8.545511E1,1.7851303E1,3.5548538E2,1.6795413E2,2.4147144E2,8.8382996E1,7.108172E1,4.3415344E1,3.8615097E1,2.9003143E2,3.3148544E1,1.1696976E2,6.671753E1,3.844171E2,0E0,1.342691E1,0E0,0E0,3.5898343E2,1.5985291E1,7.143463E0,9.066061E1,1.2035104E2,4.9187854E2,0E0,8.757629E0,0E0,0E0,0E0,0E0,0E0,0E0,0E0,0E0,0E0,0E0,0E0,0E0,0E0,0E0,0E0,0E0,0E0,0E0,0E0,0E0,0E0,0E0,0E0,0E0,0E0,0E0,0E0,0E0,0E0,0E0,0E0,0E0],"parents":[2147483647,0,0,1,1,2,2,3,3,4,4,5,5,6,6,7,7,8,8,9,9,13,13,14,14,15,15,16,16,17,17,18,18,19,19,20,20,21,21,22,22,23,23,24,24,25,25,26,26,27,27,28,28,29,29,30,30,31,31,32,32,34,34,37,37,38,38,39,39,40,40,41,41,42,42,44,44],"right_children":[2,4,6,8,10,12,14,16,18,20,-1,-1,-1,22,24,26,28,30,32,34,36,38,40,42,44,46,48,50,52,54,56,58,60,-1,62,-1,-1,64,66,68,70,72,74,-1,76,-1,-1,-1,-1,-1,-1,-1,-1,-1,-1,-1,-1,-1,-1,-1,-1,-1,-1,-1,-1,-1,-1,-1,-1,-1,-1,-1,-1,-1,-1,-1,-1],"split_conditions":[2.3389582E1,2.3023119E1,2.3408333E1,2.2418749E1,1.0925626E2,1E-1,2.45375E1,9.299999E0,1.2307399E2,2.249375E1,1.0548136E1,1.0502075E1,1.4744382E0,2.4016665E1,2.7310415E1,9.83268E0,1.986875E1,6.607459E1,1.4319901E1,2.3110205E1,2.2647913E1,7.0000005E-1,1.4897651E1,1.675064E1,2.6370749E1,9.178235E0,1.5856356E1,8.145343E1,2.6400002E1,1.255879E1,7.1E0,1.24806595E2,1.5095336E1,7.331796E-1,2.2300001E1,2.9623454E0,5.640566E-1,2.0883104E1,2.3439583E1,8.936778E0,2.41E1,1.6584438E1,1.725373E1,7.806287E-2,1E-1,-3.3933908E-1,6.2540936E-1,-5.0494814E-1,-2.726172E-1,-4.717105E-1,-1.8892819E0,1.5493771E-1,3.864806E0,1.5169826E0,2.8314868E-1,-3.152426E-1,1.370303E0,1.3963555E0,-4.648399E-1,4.681558E0,3.1547374E-1,-8.841116E-1,1.3055664E-1,3.391874E-2,4.272529E0,6.3843757E-1,2.8593774E0,-3.7661693E-1,-1.774222E0,-1.2679286E0,3.6536223E-1,7.079227E-1,-1.3383498E0,4.2680078E0,1.1377981E0,3.3521492E0,8.669501E-1],"split_indices":[0,2,0,0,3,1,0,1,3,0,0,0,0,0,0,2,0,3,2,2,0,1,2,2,3,2,2,3,1,2,1,3,2,0,0,0,0,2,0,2,0,2,2,0,1,0,0,0,0,0,0,0,0,0,0,0,0,0,0,0,0,0,0,0,0,0,0,0,0,0,0,0,0,0,0,0,0],"split_type":[0,0,0,0,0,0,0,0,0,0,0,0,0,0,0,0,0,0,0,0,0,0,0,0,0,0,0,0,0,0,0,0,0,0,0,0,0,0,0,0,0,0,0,0,0,0,0,0,0,0,0,0,0,0,0,0,0,0,0,0,0,0,0,0,0,0,0,0,0,0,0,0,0,0,0,0,0],"sum_hessian":[5.99E2,4.86E2,1.13E2,4.62E2,2.4E1,2E0,1.11E2,3.78E2,8.4E1,2.3E1,1E0,1E0,1E0,5.1E1,6E1,3.3E2,4.8E1,6.3E1,2.1E1,2.1E1,2E0,2.8E1,2.3E1,5.2E1,8E0,3E1,3E2,8E0,4E1,8E0,5.5E1,1.4E1,7E0,3E0,1.8E1,1E0,1E0,1.9E1,9E0,8E0,1.5E1,2.3E1,2.9E1,1E0,7E0,2.1E1,9E0,1.58E2,1.42E2,4E0,4E0,3.9E1,1E0,3E0,5E0,5.2E1,3E0,1E0,1.3E1,2E0,5E0,1.7E1,1E0,1.8E1,1E0,1E0,8E0,1E0,7E0,3E0,1.2E1,2.1E1,2E0,5E0,2.4E1,6E0,1E0],"tree_param":{"num_deleted":"0","num_feature":"4","num_nodes":"77","size_leaf_vector":"1"}},{"base_weights":[2.4511081E-1,-4.0189257E-1,3.0069137E0,-5.30835E-1,2.002197E0,2.2622303E1,2.454654E0,-9.5943797E-1,-3.198394E-2,-4.049101E-1,8.965916E0,8.926764E0,1.2532725E0,1.9262202E0,7.1315274E0,-7.6064336E-1,-1.9791237E0,-1.9632925E-1,2.5367916E0,-1.3500357E0,6.660981E0,3.0679908E0,-2.522478E-1,8.418646E0,2.77441E0,-9.8342526E-1,2.9972095E0,-3.8939707E0,-1.2110424E0,1.3422757E0,-2.6506266E-1,1.8873688E0,1.6912726E-1,5.6821424E-1,-1.961946E0,2.5179935E0,4.794481E-1,-1.9479877E0,4.0880575E0,-3.3654263E0,1.8818398E0,9.531748E0,1.0158677E0,6.1618283E-2,1.0686852E0,-3.7904474E-1,-8.424369E-2,3.1609373E0,-2.0597717E-1,1.5983199E-1,-1.3169768E0,-1.0493218E0,-6.6158466E-2,-1.6962278E-1,1.6890544E-1,-6.900717E-1,1.1492684E0,-6.336132E-1,1.10973075E-1,8.131611E-2,-9.274171E-1,2.9201722E0,8.8328797E-1,-1.1976913E0,8.116292E-1,1.0341287E-1,2.1117423E0,6.617937E-1,3.166712E0],"categories":[],"categories_nodes":[],"categories_segments":[],"categories_sizes":[],"default_left":[0,0,0,0,0,0,0,0,0,0,0,0,0,0,0,0,0,0,0,0,0,0,0,0,0,0,0,0,0,0,0,0,0,0,0,0,0,0,0,0,0,0,0,0,0,0,0,0,0,0,0,0,0,0,0,0,0,0,0,0,0,0,0,0,0,0,0,0,0],"id":4,"left_children":[1,3,5,7,9,11,13,15,17,19,-1,-1,-1,21,23,25,27,29,31,33,35,37,39,41,43,45,47,49,51,-1,53,-1,55,-1,57,-1,-1,59,61,63,65,67,-1,-1,-1,-1,-1,-1,-1,-1,-1,-1,-1,-1,-1,-1,-1,-1,-1,-1,-1,-1,-1,-1,-1,-1,-1,-1,-1],"loss_changes":[1.073346E3,1.5202756E2,1.1794076E3,9.8962906E1,1.6901067E3,2.7042322E2,2.63062E2,4.8968887E1,9.126378E1,1.6926828E2,0E0,0E0,0E0,2.5447958E2,3.833258E1,1.7875563E2,5.411458E1,6.635403E1,1.1449621E2,4.7387955E1,1.2897583E1,3.50778E2,2.4550983E2,1.2536194E1,7.3645687E0,3.8802795E1,3.405112E2,2.6488785E1,6.717881E1,0E0,5.0309296E1,0E0,9.019217E1,0E0,7.431404E0,0E0,0E0,3.1285019E1,3.3296173E2,6.788617E1,1.7197726E2,2.1721985E1,0E0,0E0,0E0,0E0,0E0,0E0,0E0,0E0,0E0,0E0,0E0,0E0,0E0,0E0,0E0,0E0,0E0,0E0,0E0,0E0,0E0,0E0,0E0,0E0,0E0,0E0,0E0],"parents":[2147483647,0,0,1,1,2,2,3,3,4,4,5,5,6,6,7,7,8,8,9,9,13,13,14,14,15,15,16,16,17,17,18,18,19,19,20,20,21,21,22,22,23,23,24,24,25,25,26,26,27,27,28,28,30,30,32,32,34,34,37,37,38,38,39,39,40,40,41,41],"right_children":[2,4,6,8,10,12,14,16,18,20,-1,-1,-1,22,24,26,28,30,32,34,36,38,40,42,44,46,48,50,52,-1,54,-1,56,-1,58,-1,-1,60,62,64,66,68,-1,-1,-1,-1,-1,-1,-1,-1,-1,-1,-1,-1,-1,-1,-1,-1,-1,-1,-1,-1,-1,-1,-1,-1,-1,-1,-1],"split_conditions":[2.3389582E1,2.3023119E1,2.3408333E1,2.1527084E1,1.0925626E2,1E-1,2.819048E2,2.9768698E2,2.0265795E1,2.249375E1,8.965916E0,8.926764E0,1.2532725E0,9.049331E1,3.1608084E2,2.0985893E2,2.0366667E1,2.15375E1,8.453551E1,2.3110205E1,2.2647913E1,1.3121493E1,1.0677739E2,2.6764585E1,1.1679212E1,9.000001E-1,2.0235418E1,8.000001E-1,3.1106116E2,1.3422757E0,1.2027846E2,1.8873688E0,9.386063E1,5.6821424E-1,2.2300001E1,2.5179935E0,4.794481E-1,2.4016665E1,1.4759999E1,1.1E0,2.5302084E1,1.0464798E1,1.0158677E0,6.1618283E-2,1.0686852E0,-3.7904474E-1,-8.424369E-2,3.1609373E0,-2.0597717E-1,1.5983199E-1,-1.3169768E0,-1.0493218E0,-6.6158466E-2,-1.6962278E-1,1.6890544E-1,-6.900717E-1,1.1492684E0,-6.336132E-1,1.10973075E-1,8.131611E-2,-9.274171E-1,2.9201722E0,8.8328797E-1,-1.1976913E0,8.116292E-1,1.0341287E-1,2.1117423E0,6.617937E-1,3.166712E0],"split_indices":[0,2,0,0,3,1,3,3,2,0,0,0,0,3,3,3,0,0,3,2,0,2,3,0,2,1,0,1,3,0,3,0,3,0,0,0,0,0,2,1,0,2,0,0,0,0,0,0,0,0,0,0,0,0,0,0,0,0,0,0,0,0,0,0,0,0,0,0,0],"split_type":[0,0,0,0,0,0,0,0,0,0,0,0,0,0,0,0,0,0,0,0,0,0,0,0,0,0,0,0,0,0,0,0,0,0,0,0,0,0,0,0,0,0,0,0,0,0,0,0,0,0,0,0,0,0,0,0,0,0,0,0,0,0,0,0,0,0,0,0,0],"sum_hessian":[5.99E2,4.86E2,1.13E2,4.62E2,2.4E1,2E0,1.11E2,2.48E2,2.14E2,2.3E1,1E0,1E0,1E0,1.01E2,1E1,2.09E2,3.9E1,2.02E2,1.2E1,2.1E1,2E0,6.6E1,3.5E1,7E0,3E0,1.98E2,1.1E1,1E1,2.9E1,2E0,2E2,4E0,8E0,3E0,1.8E1,1E0,1E0,1.1E1,5.5E1,1.4E1,2.1E1,5E0,2E0,1E0,2E0,1.41E2,5.7E1,3E0,8E0,1E0,9E0,8E0,2.1E1,1.47E2,5.3E1,5E0,3E0,1.7E1,1E0,4E0,7E0,8E0,4.7E1,1.3E1,1E0,1.7E1,4E0,1E0,4E0],"tree_param":{"num_deleted":"0","num_feature":"4","num_nodes":"69","size_leaf_vector":"1"}},{"base_weights":[2.3300631E-1,-2.486429E-1,2.2885342E0,-3.6314574E-1,1.8818951E0,1.9228956E1,1.8143394E0,-2.871346E-1,-2.1242938E0,-1.5664493E-1,7.6210284E0,7.587749E0,1.0652816E0,1.4265362E0,6.094028E0,-4.4587216E-1,1.0048237E0,-4.0522957E0,-1.5095252E0,-9.429536E-1,5.661834E0,1.0180001E0,5.625751E0,-6.61397E-2,6.9108977E0,-6.182089E-1,5.3238946E-1,4.6332355E0,1.838351E-1,-1.458562E0,-2.4353436E-1,-8.9908695E-1,-5.6096953E-1,1.4678866E0,-1.4008697E0,2.1402946E0,4.0753084E-1,-1.3357805E0,1.5783056E0,6.870277E0,8.4660655E-1,2.202443E0,5.845273E-1,-1.6342169E-1,-7.239164E-1,-7.5058974E-2,9.3648446E-1,1.3945542E-1,2.3624918E0,-5.797332E-1,3.7062272E-1,2.6883228E-2,-5.1656634E-1,1.18305236E-1,5.082845E-1,-1.5060326E-1,-5.65011E-1,5.271601E-1,-4.815705E-1,1.3876746E0,1.7610893E-1,2.3869557E0,8.3093417E-1,3.2859737E-1,5.2375603E-2],"categories":[],"categories_nodes":[],"categories_segments":[],"categories_sizes":[],"default_left":[0,0,0,0,0,0,0,0,0,0,0,0,0,0,0,0,0,0,0,0,0,0,0,0,0,0,0,0,0,0,0,0,0,0,0,0,0,0,0,0,0,0,0,0,0,0,0,0,0,0,0,0,0,0,0,0,0,0,0,0,0,0,0,0,0],"id":5,"left_children":[1,3,5,7,9,11,13,15,17,19,-1,-1,-1,21,23,25,27,29,31,33,35,37,39,-1,41,43,45,47,49,-1,-1,-1,51,53,55,-1,-1,57,59,61,63,-1,-1,-1,-1,-1,-1,-1,-1,-1,-1,-1,-1,-1,-1,-1,-1,-1,-1,-1,-1,-1,-1,-1,-1],"loss_changes":[5.945951E2,1.1948833E2,8.808807E2,6.137041E1,1.2027189E3,1.9538074E2,1.771904E2,9.1709656E1,1.6403183E1,1.1514174E2,0E0,0E0,0E0,1.726882E2,4.7946686E1,6.7259544E1,1.4511359E2,6.5470123E0,2.0893375E1,2.6343496E1,9.318497E0,1.2871655E2,4.77135E1,0E0,2.7895813E0,4.3256622E1,1.2235851E2,1.1795456E2,9.362973E1,0E0,0E0,0E0,8.4622755E0,3.0403042E-1,7.294819E0,0E0,0E0,1.8655651E1,2.3289859E2,9.141113E0,3.1020355E-1,0E0,0E0,0E0,0E0,0E0,0E0,0E0,0E0,0E0,0E0,0E0,0E0,0E0,0E0,0E0,0E0,0E0,0E0,0E0,0E0,0E0,0E0,0E0,0E0],"parents":[2147483647,0,0,1,1,2,2,3,3,4,4,5,5,6,6,7,7,8,8,9,9,13,13,14,14,15,15,16,16,17,17,18,18,19,19,20,20,21,21,22,22,24,24,25,25,26,26,27,27,28,28,32,32,33,33,34,34,37,37,38,38,39,39,40,40],"right_children":[2,4,6,8,10,12,14,16,18,20,-1,-1,-1,22,24,26,28,30,32,34,36,38,40,-1,42,44,46,48,50,-1,-1,-1,52,54,56,-1,-1,58,60,62,64,-1,-1,-1,-1,-1,-1,-1,-1,-1,-1,-1,-1,-1,-1,-1,-1,-1,-1,-1,-1,-1,-1,-1,-1],"split_conditions":[2.3389582E1,2.3023119E1,2.3408333E1,3.405424E2,1.0925626E2,1E-1,2.7310415E1,9.700001E0,8E-1,2.249375E1,7.6210284E0,7.587749E0,1.0652816E0,2.819048E2,2.6370749E1,2.2570833E1,1.0700003E1,3.508548E2,2.0733332E1,2.3110205E1,2.2647913E1,1.3121493E1,3.1608084E2,-6.61397E-2,1E-1,7.3E0,1.2307399E2,1.02E1,1.0636766E1,-1.458562E0,-2.4353436E-1,-8.9908695E-1,9.4E0,1.9239584E1,8.59357E1,2.1402946E0,4.0753084E-1,2.3439583E1,7.8845985E1,2.5958336E1,2.3927086E1,2.202443E0,5.845273E-1,-1.6342169E-1,-7.239164E-1,-7.5058974E-2,9.3648446E-1,1.3945542E-1,2.3624918E0,-5.797332E-1,3.7062272E-1,2.6883228E-2,-5.1656634E-1,1.18305236E-1,5.082845E-1,-1.5060326E-1,-5.65011E-1,5.271601E-1,-4.815705E-1,1.3876746E0,1.7610893E-1,2.3869557E0,8.3093417E-1,3.2859737E-1,5.2375603E-2],"split_indices":[0,2,0,3,3,1,0,1,1,0,0,0,0,3,3,0,1,3,0,2,0,2,3,0,1,1,3,1,2,0,0,0,1,0,3,0,0,0,3,0,0,0,0,0,0,0,0,0,0,0,0,0,0,0,0,0,0,0,0,0,0,0,0,0,0],"split_type":[0,0,0,0,0,0,0,0,0,0,0,0,0,0,0,0,0,0,0,0,0,0,0,0,0,0,0,0,0,0,0,0,0,0,0,0,0,0,0,0,0,0,0,0,0,0,0,0,0,0,0,0,0,0,0,0,0,0,0,0,0,0,0,0,0],"sum_hessian":[5.99E2,4.86E2,1.13E2,4.62E2,2.4E1,2E0,1.11E2,4.44E2,1.8E1,2.3E1,1E0,1E0,1E0,1.03E2,8E0,3.96E2,4.8E1,3E0,1.5E1,2.1E1,2E0,9.5E1,8E0,1E0,7E0,3.37E2,5.9E1,8E0,4E1,2E0,1E0,5E0,1E1,3E0,1.8E1,1E0,1E0,1.8E1,7.7E1,6E0,2E0,6E0,1E0,3.25E2,1.2E1,4.6E1,1.3E1,4E0,4E0,1.3E1,2.7E1,7E0,3E0,1E0,2E0,7E0,1.1E1,1E0,1.7E1,1.8E1,5.9E1,4E0,2E0,1E0,1E0],"tree_param":{"num_deleted":"0","num_feature":"4","num_nodes":"65","size_leaf_vector":"1"}},{"base_weights":[2.061677E-1,-1.5504412E-1,1.7474308E0,-2.4736391E-1,1.9053552E0,1.6344614E1,1.3408327E0,-9.469902E-1,-1.1109105E-1,-1.5866855E-1,6.4778748E0,6.4495873E0,9.054895E-1,2.5079137E-1,2.2480674E0,-7.013992E-1,-3.695319E0,-1.5835473E-1,2.7553508E0,-9.7839147E-1,4.8125587E0,-5.6370145E-1,4.800965E0,1.0115749E0,3.337027E0,-1.0898091E0,1.5162734E0,-2.685772E-1,-1.222884E0,-5.84223E-1,3.0459997E-1,-1.7510414E-1,-1.3654431E0,1.8192502E0,3.464012E-1,-1.323846E0,4.597879E0,2.63805E0,2.0045362E0,1.5140344E0,-1.2045717E0,6.0055313E0,2.9317707E-1,-3.726886E-1,1.5450943E-1,6.1709917E-1,-1.8339665E-1,8.105224E-1,-1.990353E-1,2.9223878E-2,9.2584896E-1,2.6376352E-1,-1.4920762E-1,-5.1627E-1,8.236824E-2,4.292351E-1,-9.1015655E-1,3.7596E0,-7.506545E-1,-2.3772813E-2,9.198709E-1,-4.8485425E-1,6.794354E-1,3.867976E0,1.2682855E0,-3.5703653E-1,2.1352537E0],"categories":[],"categories_nodes":[],"categories_segments":[],"categories_sizes":[],"default_left":[0,0,0,0,0,0,0,0,0,0,0,0,0,0,0,0,0,0,0,0,0,0,0,0,0,0,0,0,0,0,0,0,0,0,0,0,0,0,0,0,0,0,0,0,0,0,0,0,0,0,0,0,0,0,0,0,0,0,0,0,0,0,0,0,0,0,0],"id":6,"left_children":[1,3,5,7,9,11,13,15,17,19,-1,-1,-1,21,23,25,27,29,-1,31,33,35,37,39,41,43,45,-1,-1,47,49,51,53,-1,-1,55,57,-1,59,61,-1,63,65,-1,-1,-1,-1,-1,-1,-1,-1,-1,-1,-1,-1,-1,-1,-1,-1,-1,-1,-1,-1,-1,-1,-1,-1],"loss_changes":[3.343044E2,9.310632E1,6.546958E2,4.4418617E1,8.5677356E2,1.4116266E2,1.1019563E2,4.8705437E1,1.7367722E2,8.620914E1,0E0,0E0,0E0,1.9542265E2,7.8760254E1,6.280942E1,2.750969E0,7.726662E1,0E0,5.357353E0,6.7326126E0,1.8264648E2,7.169183E1,8.185232E1,2.5816016E2,1.5567505E1,1.391234E1,0E0,0E0,5.49019E1,1.0804448E2,2.8155904E0,7.4678955E0,0E0,0E0,1.9275845E2,3.6935376E2,0E0,1.3517065E1,6.946059E1,0E0,1.5367035E2,1.7043115E2,0E0,0E0,0E0,0E0,0E0,0E0,0E0,0E0,0E0,0E0,0E0,0E0,0E0,0E0,0E0,0E0,0E0,0E0,0E0,0E0,0E0,0E0,0E0,0E0],"parents":[2147483647,0,0,1,1,2,2,3,3,4,4,5,5,6,6,7,7,8,8,9,9,13,13,14,14,15,15,16,16,17,17,19,19,20,20,21,21,22,22,23,23,24,24,25,25,26,26,29,29,30,30,31,31,32,32,35,35,36,36,38,38,39,39,41,41,42,42],"right_children":[2,4,6,8,10,12,14,16,18,20,-1,-1,-1,22,24,26,28,30,-1,32,34,36,38,40,42,44,46,-1,-1,48,50,52,54,-1,-1,56,58,-1,60,62,-1,64,66,-1,-1,-1,-1,-1,-1,-1,-1,-1,-1,-1,-1,-1,-1,-1,-1,-1,-1,-1,-1,-1,-1,-1,-1],"split_conditions":[2.3389582E1,2.3143827E1,2.3408333E1,1.9895834E1,1.0925626E2,1E-1,2.45375E1,1.43E1,2.6400002E1,2.249375E1,6.4778748E0,6.4495873E0,9.054895E-1,1.7000002E0,1.675064E1,9.828961E1,1.9331251E1,1.4404499E1,2.7553508E0,8.59357E1,2.2647913E1,2.0883104E1,8.129389E1,1.6584438E1,1.8671474E1,1E-1,1.9791666E1,-2.685772E-1,-1.222884E0,4.681799E0,1.0700001E1,1.8472918E1,1.01253456E2,1.8192502E0,3.464012E-1,2.3754166E1,2.4258337E1,2.63805E0,2.3491669E1,2.4908333E1,-1.2045717E0,7.880368E1,2.5487642E1,-3.726886E-1,1.5450943E-1,6.1709917E-1,-1.8339665E-1,8.105224E-1,-1.990353E-1,2.9223878E-2,9.2584896E-1,2.6376352E-1,-1.4920762E-1,-5.1627E-1,8.236824E-2,4.292351E-1,-9.1015655E-1,3.7596E0,-7.506545E-1,-2.3772813E-2,9.198709E-1,-4.8485425E-1,6.794354E-1,3.867976E0,1.2682855E0,-3.5703653E-1,2.1352537E0],"split_indices":[0,2,0,0,3,1,0,1,1,0,0,0,0,1,2,3,0,2,0,3,0,2,3,2,2,1,0,0,0,3,1,0,3,0,0,0,0,0,0,0,0,3,2,0,0,0,0,0,0,0,0,0,0,0,0,0,0,0,0,0,0,0,0,0,0,0,0],"split_type":[0,0,0,0,0,0,0,0,0,0,0,0,0,0,0,0,0,0,0,0,0,0,0,0,0,0,0,0,0,0,0,0,0,0,0,0,0,0,0,0,0,0,0,0,0,0,0,0,0,0,0,0,0,0,0,0,0,0,0,0,0,0,0,0,0,0,0],"sum_hessian":[5.99E2,4.86E2,1.13E2,4.66E2,2E1,2E0,1.11E2,7.5E1,3.91E2,1.9E1,1E0,1E0,1E0,5.1E1,6E1,7E1,5E0,3.9E2,1E0,1.7E1,2E0,4.4E1,7E0,2.9E1,3.1E1,6E1,1E1,1E0,4E0,2.03E2,1.87E2,6E0,1.1E1,1E0,1E0,3.9E1,5E0,2E0,5E0,2.7E1,2E0,1.6E1,1.5E1,5.5E1,5E0,8E0,2E0,4E0,1.99E2,1.75E2,1.2E1,1E0,5E0,9E0,2E0,1.5E1,2.4E1,2E0,3E0,2E0,3E0,5E0,2.2E1,2E0,1.4E1,1.3E1,2E0],"tree_param":{"num_deleted":"0","num_feature":"4","num_nodes":"67","size_leaf_vector":"1"}},{"base_weights":[1.9547051E-1,-9.016265E-2,1.3753934E0,-1.7235263E-1,1.7301381E0,7.305516E0,1.045428E0,-1.1297081E-1,-1.5571916E0,-1.8752802E-2,5.506193E0,5.3858185E-1,1.3892922E1,8.389836E-1,5.2955413E0,-1.5461653E-1,2.9668186E0,-1.1696622E0,-1.2799078E0,-7.0261544E-1,4.090674E0,-3.369608E-1,4.4007328E-1,5.482149E0,7.6966614E-1,5.1002526E-1,3.693432E0,2.895012E-1,6.1369247E0,-3.253975E-1,2.7972087E-1,-5.492667E-1,4.292538E0,-1.6226853E0,3.3273467E-1,-1.3179418E-1,-1.053884E0,1.5463624E0,2.9444104E-1,3.4271297E-1,1.708203E0,-5.739613E-2,4.1010394E0,5.215433E-1,2.1070745E0,-1.5637546E-4,-2.0476283E-1,1.5465312E0,4.756049E-2,1.5598685E-1,1.5317084E0,-5.490737E-1,1.6133967E-1,1.1368171E-1,2.218759E-2,2.24199E-1,-1.0924344E-1,-6.3687555E-2,-5.159487E-1,1.376838E-2,9.6205735E-1,5.936613E-1,1.4183534E0],"categories":[],"categories_nodes":[],"categories_segments":[],"categories_sizes":[],"default_left":[0,0,0,0,0,0,0,0,0,0,0,0,0,0,0,0,0,0,0,0,0,0,0,0,0,0,0,0,0,0,0,0,0,0,0,0,0,0,0,0,0,0,0,0,0,0,0,0,0,0,0,0,0,0,0,0,0,0,0,0,0,0,0],"id":7,"left_children":[1,3,5,7,9,11,13,15,17,19,-1,21,23,25,27,29,31,33,-1,35,37,-1,-1,-1,-1,39,41,-1,43,45,47,-1,49,51,53,55,57,-1,-1,59,-1,-1,61,-1,-1,-1,-1,-1,-1,-1,-1,-1,-1,-1,-1,-1,-1,-1,-1,-1,-1,-1,-1],"loss_changes":[2.0233908E2,7.270966E1,2.2130064E2,3.798078E1,6.1088306E2,2.5997684E2,9.382728E1,5.7662712E1,1.4957558E1,5.9079838E1,0E0,7.8183694E0,1.0198999E2,9.952767E1,1.2296066E1,3.2802883E1,4.602164E1,1.279109E1,0E0,3.470313E0,4.864315E0,0E0,0E0,0E0,0E0,8.304832E1,1.8202621E1,0E0,3.3893127E0,3.6780525E1,7.303621E1,0E0,1.2683762E1,7.2623367E0,3.1757116E-2,1.9062566E0,5.7998886E0,0E0,0E0,8.1465385E1,0E0,0E0,3.9460754E0,0E0,0E0,0E0,0E0,0E0,0E0,0E0,0E0,0E0,0E0,0E0,0E0,0E0,0E0,0E0,0E0,0E0,0E0,0E0,0E0],"parents":[2147483647,0,0,1,1,2,2,3,3,4,4,5,5,6,6,7,7,8,8,9,9,11,11,12,12,13,13,14,14,15,15,16,16,17,17,19,19,20,20,25,25,26,26,28,28,29,29,30,30,32,32,33,33,34,34,35,35,36,36,39,39,42,42],"right_children":[2,4,6,8,10,12,14,16,18,20,-1,22,24,26,28,30,32,34,-1,36,38,-1,-1,-1,-1,40,42,-1,44,46,48,-1,50,52,54,56,58,-1,-1,60,-1,-1,62,-1,-1,-1,-1,-1,-1,-1,-1,-1,-1,-1,-1,-1,-1,-1,-1,-1,-1,-1,-1],"split_conditions":[2.3366669E1,2.3143827E1,2.3408333E1,3.405424E2,1.0925626E2,2.3389582E1,2.8308336E1,3.376497E2,2.2239586E1,2.249375E1,5.506193E0,1E-1,1E-1,2.7568225E2,4.509753E1,1.01253456E2,1E-1,2.1402084E1,-1.2799078E0,8.716303E1,2.2647913E1,-3.369608E-1,4.4007328E-1,5.482149E0,7.6966614E-1,2.7534704E1,2E-1,2.895012E-1,1.3842457E1,8.564378E1,1.01706825E2,-5.492667E-1,2.0293749E1,1.5856356E1,2.1862501E1,1.8472918E1,2.4066206E1,1.5463624E0,2.9444104E-1,2.0000002E0,1.708203E0,-5.739613E-2,7E-1,5.215433E-1,2.1070745E0,-1.5637546E-4,-2.0476283E-1,1.5465312E0,4.756049E-2,1.5598685E-1,1.5317084E0,-5.490737E-1,1.6133967E-1,1.1368171E-1,2.218759E-2,2.24199E-1,-1.0924344E-1,-6.3687555E-2,-5.159487E-1,1.376838E-2,9.6205735E-1,5.936613E-1,1.4183534E0],"split_indices":[0,2,0,3,3,0,0,3,0,0,0,1,1,3,3,3,1,0,0,3,0,0,0,0,0,2,1,0,2,3,3,0,0,2,0,0,2,0,0,1,0,0,1,0,0,0,0,0,0,0,0,0,0,0,0,0,0,0,0,0,0,0,0],"split_type":[0,0,0,0,0,0,0,0,0,0,0,0,0,0,0,0,0,0,0,0,0,0,0,0,0,0,0,0,0,0,0,0,0,0,0,0,0,0,0,0,0,0,0,0,0,0,0,0,0,0,0,0,0,0,0,0,0,0,0,0,0,0,0],"sum_hessian":[5.99E2,4.83E2,1.16E2,4.63E2,2E1,5E0,1.11E2,4.45E2,1.8E1,1.9E1,1E0,3E0,2E0,1.07E2,4E0,4.4E2,5E0,1.7E1,1E0,1.7E1,2E0,1E0,2E0,1E0,1E0,9.7E1,1E1,1E0,3E0,3.16E2,1.24E2,1E0,4E0,1.3E1,4E0,7E0,1E1,1E0,1E0,9.5E1,2E0,1E0,9E0,1E0,2E0,1.66E2,1.5E2,2E0,1.22E2,1E0,3E0,1.2E1,1E0,3E0,1E0,1E0,6E0,5E0,5E0,8.7E1,8E0,3E0,6E0],"tree_param":{"num_deleted":"0","num_feature":"4","num_nodes":"63","size_leaf_vector":"1"}},{"base_weights":[1.7314573E-1,-4.6836704E-2,1.0816786E0,-1.5243638E-1,1.1619912E0,6.173016E0,7.992706E-1,-2.5481812E-3,-7.136927E-1,3.7147108E-1,4.680264E0,4.027853E-1,1.1808985E1,5.678184E-1,3.3850205E0,-1.2954913E-1,1.6688862E0,-1.245008E0,1.7689867E-1,-2.1537572E-1,5.4135127E0,-2.8641665E-1,3.520586E-1,4.659827E0,6.542161E-1,3.2313997E-1,2.8354821E0,1.908366E-1,4.2703824E0,-3.2452813E-1,5.467235E-1,9.3471426E-1,2.8933518E0,-8.8734573E-1,-2.725048E0,4.7385077E0,-5.413809E-1,-5.0358796E-1,1.4375759E0,1.9985552E0,2.5027487E-1,9.063805E-1,-7.499204E-1,3.4157763E0,3.428701E-1,-1.6019955E-1,2.4607602E-1,4.6605396E-1,5.0464272E0,-1.7986467E-1,2.6945611E-2,-9.7112544E-2,5.502442E-1,1.0084755E0,-1.8299215E-2,-4.0199903E-1,1.3057962E-2,-2.028125E-1,-9.315801E-1,4.6794862E-1,1.9013054E0,1.427088E-1,-6.1934096E-1,-2.676863E-2,-4.934014E-1,7.7400945E-2,1.5752032E0,-4.404575E-1,1.1129073E0,6.445656E-2,1.1527072E0,2.0307828E-1,-4.8786737E-2,1.6707542E0,4.4331208E-1],"categories":[],"categories_nodes":[],"categories_segments":[],"categories_sizes":[],"default_left":[0,0,0,0,0,0,0,0,0,0,0,0,0,0,0,0,0,0,0,0,0,0,0,0,0,0,0,0,0,0,0,0,0,0,0,0,0,0,0,0,0,0,0,0,0,0,0,0,0,0,0,0,0,0,0,0,0,0,0,0,0,0,0,0,0,0,0,0,0,0,0,0,0,0,0],"id":8,"left_children":[1,3,5,7,9,11,13,15,17,19,-1,21,23,25,27,29,31,33,35,37,39,-1,-1,-1,-1,41,43,45,47,49,51,53,-1,55,57,59,61,63,-1,-1,-1,65,67,69,71,-1,-1,-1,73,-1,-1,-1,-1,-1,-1,-1,-1,-1,-1,-1,-1,-1,-1,-1,-1,-1,-1,-1,-1,-1,-1,-1,-1,-1,-1],"loss_changes":[1.19967415E2,6.1960617E1,1.6329276E2,3.751824E1,4.3935983E2,1.9036855E2,6.510738E1,7.5148834E1,4.4699615E1,1.1360437E2,0E0,5.3055525E0,7.3687805E1,5.678798E1,2.4637123E1,4.355903E1,1.3737204E2,2.881385E1,1.20519714E2,5.292388E1,1.730822E1,0E0,0E0,0E0,0E0,6.013568E1,1.3293312E1,1.8066843E0,6.919197E0,2.9226068E1,8.351923E1,5.8200176E1,0E0,2.0704975E1,6.4704895E0,1.5530647E1,5.055321E1,1.592907E1,0E0,0E0,0E0,1.732834E2,1.1435568E2,1.0098061E1,6.166744E-1,0E0,0E0,0E0,1.0981903E0,0E0,0E0,0E0,0E0,0E0,0E0,0E0,0E0,0E0,0E0,0E0,0E0,0E0,0E0,0E0,0E0,0E0,0E0,0E0,0E0,0E0,0E0,0E0,0E0,0E0,0E0],"parents":[2147483647,0,0,1,1,2,2,3,3,4,4,5,5,6,6,7,7,8,8,9,9,11,11,12,12,13,13,14,14,15,15,16,16,17,17,18,18,19,19,20,20,25,25,26,26,27,27,28,28,29,29,30,30,31,31,33,33,34,34,35,35,36,36,37,37,41,41,42,42,43,43,44,44,48,48],"right_children":[2,4,6,8,10,12,14,16,18,20,-1,22,24,26,28,30,32,34,36,38,40,-1,-1,-1,-1,42,44,46,48,50,52,54,-1,56,58,60,62,64,-1,-1,-1,66,68,70,72,-1,-1,-1,74,-1,-1,-1,-1,-1,-1,-1,-1,-1,-1,-1,-1,-1,-1,-1,-1,-1,-1,-1,-1,-1,-1,-1,-1,-1,-1],"split_conditions":[2.3366669E1,2.193121E1,2.3408333E1,1.81041E1,1.0925626E2,2.3389582E1,2.7310415E1,1.7462782E1,2.1647917E1,2.2618746E1,4.680264E0,1E-1,1E-1,2.7568225E2,4.509753E1,2.232292E1,9.1E0,3.5999997E0,2.1785418E1,1.5E0,2.2666664E1,-2.8641665E-1,3.520586E-1,4.659827E0,6.542161E-1,9.049331E1,3.1608084E2,2.8308336E1,2.7483335E1,1.01253456E2,1.4319901E1,1.7648262E1,2.8933518E0,9.119484E1,1.9489582E1,2.0161608E1,2.2499998E1,2.1266668E1,1.4375759E0,1.9985552E0,2.5027487E-1,8.7033424E1,2.5397917E1,1.0464798E1,2.3927086E1,-1.6019955E-1,2.4607602E-1,4.6605396E-1,1.0925626E2,-1.7986467E-1,2.6945611E-2,-9.7112544E-2,5.502442E-1,1.0084755E0,-1.8299215E-2,-4.0199903E-1,1.3057962E-2,-2.028125E-1,-9.315801E-1,4.6794862E-1,1.9013054E0,1.427088E-1,-6.1934096E-1,-2.676863E-2,-4.934014E-1,7.7400945E-2,1.5752032E0,-4.404575E-1,1.1129073E0,6.445656E-2,1.1527072E0,2.0307828E-1,-4.8786737E-2,1.6707542E0,4.4331208E-1],"split_indices":[0,2,0,2,3,0,0,2,0,0,0,1,1,3,3,0,1,1,0,1,0,0,0,0,0,3,3,0,0,3,2,2,0,3,0,2,0,0,0,0,0,3,0,2,0,0,0,0,3,0,0,0,0,0,0,0,0,0,0,0,0,0,0,0,0,0,0,0,0,0,0,0,0,0,0],"split_type":[0,0,0,0,0,0,0,0,0,0,0,0,0,0,0,0,0,0,0,0,0,0,0,0,0,0,0,0,0,0,0,0,0,0,0,0,0,0,0,0,0,0,0,0,0,0,0,0,0,0,0,0,0,0,0,0,0,0,0,0,0,0,0,0,0,0,0,0,0,0,0,0,0,0,0],"sum_hessian":[5.99E2,4.83E2,1.16E2,4.45E2,3.8E1,5E0,1.11E2,3.52E2,9.3E1,3.7E1,1E0,3E0,2E0,1.03E2,8E0,3.28E2,2.4E1,5.8E1,3.5E1,3.4E1,3E0,1E0,2E0,1E0,1E0,9.4E1,9E0,2E0,6E0,2.55E2,7.3E1,2.3E1,1E0,4.8E1,1E1,4E0,3.1E1,3.3E1,1E0,2E0,1E0,6.1E1,3.3E1,7E0,2E0,1E0,1E0,2E0,4E0,1.53E2,1.02E2,4.4E1,2.9E1,6E0,1.7E1,3.2E1,1.6E1,2E0,8E0,2E0,2E0,1.9E1,1.2E1,2.5E1,8E0,5.4E1,7E0,2.9E1,4E0,1E0,6E0,1E0,1E0,3E0,1E0],"tree_param":{"num_deleted":"0","num_feature":"4","num_nodes":"75","size_leaf_vector":"1"}},{"base_weights":[1.6143827E-1,-6.447834E-2,6.8477273E-1,2.892286E-2,-1.1257073E0,1.2819824E0,3.9062712E-2,-6.1699754E-4,1.1430691E0,-7.5920224E-1,-3.6846948E0,8.066544E-1,8.119018E0,2.5431428E0,-3.8978076E-1,-9.579161E-2,9.5386606E-1,-1.4297372E0,-3.1892118E-1,-9.2359476E-2,-1.412305E0,5.546038E-1,4.930184E0,4.3653426E-1,3.555338E0,-1.8802404E-1,3.3812954E0,-1.9731787E0,6.857653E-1,-1.2581432E0,-1.4241829E-2,2.689114E0,1.9679308E-1,-3.7926432E-1,-2.1258943E0,-7.185332E-1,1.4591602E0,1.2234198E0,-1.0994911E0,-6.422622E-1,7.2331667E0,-1.8037462E-1,3.7681505E-1,4.199491E-1,-3.551757E-1,4.2784657E0,-1.3825719E-1,-2.9520524E0,-3.9073446E-1,1.3037078E-1,3.3075929E0,4.1664144E-1,-4.7291014E-1,5.6008464E-1,-2.189536E-2,-5.197795E-1,3.3329678E-1,-3.032677E-1,4.168313E-1,1.3063009E-1,-7.876064E-1,-5.851245E-1,-9.457297E-2,1.3309687E-1,4.9493286E-1,2.1493092E-1,1.7254084E0,-8.078859E-1,1.0346046E-1,2.4567194E0,6.548212E-1,1.5503577E0,-2.9209286E-1,1.4071655E-2,-7.628739E-2,-1.1318128E0,-1.6355315E-1,1.8003062E0,-4.2703974E-1,4.5029935E-1,-9.9255174E-2,1.3976138E0,2.3753859E-1],"categories":[],"categories_nodes":[],"categories_segments":[],"categories_sizes":[],"default_left":[0,0,0,0,0,0,0,0,0,0,0,0,0,0,0,0,0,0,0,0,0,0,0,0,0,0,0,0,0,0,0,0,0,0,0,0,0,0,0,0,0,0,0,0,0,0,0,0,0,0,0,0,0,0,0,0,0,0,0,0,0,0,0,0,0,0,0,0,0,0,0,0,0,0,0,0,0,0,0,0,0,0,0],"id":9,"left_children":[1,3,5,7,9,11,13,15,-1,17,19,21,23,25,27,29,31,33,35,-1,-1,37,39,41,-1,43,45,47,49,51,53,-1,55,57,59,61,63,65,67,-1,69,-1,-1,-1,-1,71,73,75,77,79,81,-1,-1,-1,-1,-1,-1,-1,-1,-1,-1,-1,-1,-1,-1,-1,-1,-1,-1,-1,-1,-1,-1,-1,-1,-1,-1,-1,-1,-1,-1,-1,-1],"loss_changes":[7.0982124E1,4.1662983E1,6.974791E1,4.322997E1,2.9090557E1,2.9893518E2,9.5490814E1,3.5065758E1,0E0,8.695963E0,1.23685E1,8.9766785E1,1.6685776E2,3.0394508E1,1.3078247E2,3.3253204E1,2.1047739E2,7.9692554E0,1.5259308E1,0E0,0E0,9.5379364E1,9.690793E1,3.3066373E0,0E0,7.9826303E0,3.21679E1,4.6865936E1,6.655162E1,2.1562668E1,3.64928E1,0E0,6.0131683E1,8.107541E0,1.0098137E1,7.83084E0,4.2351723E-2,1.3591058E2,5.8466988E1,0E0,1.436203E0,0E0,0E0,0E0,0E0,4.240117E1,7.638323E-2,3.5472366E1,9.435479E1,2.5150944E1,2.3504402E1,0E0,0E0,0E0,0E0,0E0,0E0,0E0,0E0,0E0,0E0,0E0,0E0,0E0,0E0,0E0,0E0,0E0,0E0,0E0,0E0,0E0,0E0,0E0,0E0,0E0,0E0,0E0,0E0,0E0,0E0,0E0,0E0],"parents":[2147483647,0,0,1,1,2,2,3,3,4,4,5,5,6,6,7,7,9,9,10,10,11,11,12,12,13,13,14,14,15,15,16,16,17,17,18,18,21,21,22,22,23,23,25,25,26,26,27,27,28,28,29,29,30,30,32,32,33,33,34,34,35,35,36,36,37,37,38,38,40,40,45,45,46,46,47,47,48,48,49,49,50,50],"right_children":[2,4,6,8,10,12,14,16,-1,18,20,22,24,26,28,30,32,34,36,-1,-1,38,40,42,-1,44,46,48,50,52,54,-1,56,58,60,62,64,66,68,-1,70,-1,-1,-1,-1,72,74,76,78,80,82,-1,-1,-1,-1,-1,-1,-1,-1,-1,-1,-1,-1,-1,-1,-1,-1,-1,-1,-1,-1,-1,-1,-1,-1,-1,-1,-1,-1,-1,-1,-1,-1],"split_conditions":[2.2570833E1,3.211864E2,1E-1,3.2039914E2,2.2239586E1,1.2027846E2,5.6492714E1,1.02E1,1.1430691E0,2.0785418E1,8.936778E0,2.3906818E1,1.3842457E1,2E-1,1.0677739E2,4.4379852E1,1.0700003E1,1.257426E1,1.5060956E1,-9.2359476E-2,-1.412305E0,1.8671474E1,8.316205E1,2.3172915E1,3.555338E0,1.2081472E1,2.3704165E1,2.4004171E1,3.128111E2,2.1134293E0,5.820716E1,2.689114E0,1.03621235E1,1.2033103E1,8.000001E-1,3.376497E2,2.0814585E1,1.7968472E1,1.964558E1,-6.422622E-1,2.4004171E1,-1.8037462E-1,3.7681505E-1,4.199491E-1,-3.551757E-1,9.9E0,2.421875E1,1.8581022E1,2.4016665E1,1.2573991E2,2.3754166E1,4.1664144E-1,-4.7291014E-1,5.6008464E-1,-2.189536E-2,-5.197795E-1,3.3329678E-1,-3.032677E-1,4.168313E-1,1.3063009E-1,-7.876064E-1,-5.851245E-1,-9.457297E-2,1.3309687E-1,4.9493286E-1,2.1493092E-1,1.7254084E0,-8.078859E-1,1.0346046E-1,2.4567194E0,6.548212E-1,1.5503577E0,-2.9209286E-1,1.4071655E-2,-7.628739E-2,-1.1318128E0,-1.6355315E-1,1.8003062E0,-4.2703974E-1,4.5029935E-1,-9.9255174E-2,1.3976138E0,2.3753859E-1],"split_indices":[0,3,1,3,0,3,3,1,0,0,2,2,2,1,3,3,1,2,2,0,0,2,3,0,0,2,0,0,3,3,3,0,2,2,1,3,0,2,2,0,0,0,0,0,0,1,0,2,0,3,0,0,0,0,0,0,0,0,0,0,0,0,0,0,0,0,0,0,0,0,0,0,0,0,0,0,0,0,0,0,0,0,0],"split_type":[0,0,0,0,0,0,0,0,0,0,0,0,0,0,0,0,0,0,0,0,0,0,0,0,0,0,0,0,0,0,0,0,0,0,0,0,0,0,0,0,0,0,0,0,0,0,0,0,0,0,0,0,0,0,0,0,0,0,0,0,0,0,0,0,0,0,0,0,0,0,0,0,0,0,0,0,0,0,0,0,0,0,0],"sum_hessian":[5.99E2,4.19E2,1.8E2,3.86E2,3.3E1,9.3E1,8.7E1,3.84E2,2E0,3E1,3E0,8.8E1,5E0,1.2E1,7.5E1,3.5E2,3.4E1,1.1E1,1.9E1,1E0,2E0,8.4E1,4E0,2E0,3E0,3E0,9E0,3E1,4.5E1,2.2E1,3.28E2,2E0,3.2E1,5E0,6E0,1.6E1,3E0,6E1,2.4E1,1E0,3E0,1E0,1E0,1E0,2E0,7E0,2E0,1.8E1,1.2E1,3.8E1,7E0,2E0,2E1,9E0,3.19E2,1E1,2.2E1,4E0,1E0,1E0,5E0,3E0,1.3E1,1E0,2E0,5.5E1,5E0,1.1E1,1.3E1,2E0,1E0,6E0,1E0,1E0,1E0,1.3E1,5E0,1E0,1.1E1,9E0,2.9E1,4E0,3E0],"tree_param":{"num_deleted":"0","num_feature":"4","num_nodes":"83","size_leaf_vector":"1"}},{"base_weights":[1.3435642E-1,1.0755433E-1,3.3022952E0,3.6934856E-2,8.9514446E-1,1.7692481E-1,3.8329945E0,1.6883078E-1,-4.666762E-1,3.6080605E-1,3.9815085E0,3.2029268E-1,1.3196694E0,1.01431355E-1,4.970984E0,-3.0305642E-1,-1.7145638E0,1.9469215E-1,1.2252238E0,-8.394848E-2,5.298767E-1,1.5026604E0,3.3468907E0,-4.4810617E-1,1.3898861E0,-2.6766176E0,-1.4606507E-1,8.879608E-1,-1.0809561E0,-3.862662E-2,1.322937E0,1.2782162E0,1.2245928E-1,1.2181369E0,-4.5570806E-2,-3.796553E-2,-4.0752962E-1,-1.0510757E0,-2.9212597E-1,1.1986638E-1,-1.5562907E-1,-8.3548054E-2,6.972786E-1,-4.0386337E-1,1.8169147E-1],"categories":[],"categories_nodes":[],"categories_segments":[],"categories_sizes":[],"default_left":[0,0,0,0,0,0,0,0,0,0,0,0,0,0,0,0,0,0,0,0,0,0,0,0,0,0,0,0,0,0,0,0,0,0,0,0,0,0,0,0,0,0,0,0,0],"id":10,"left_children":[1,3,5,7,9,-1,11,13,15,17,-1,-1,-1,19,21,23,25,27,-1,29,31,33,-1,35,-1,37,39,41,43,-1,-1,-1,-1,-1,-1,-1,-1,-1,-1,-1,-1,-1,-1,-1,-1],"loss_changes":[5.0589268E1,3.311598E1,4.937229E0,3.647927E1,3.1926154E2,0E0,1.5632362E0,1.4028891E2,2.275681E1,2.8892254E1,0E0,0E0,0E0,3.419729E1,1.11951965E2,7.510468E1,1.922578E1,4.252509E1,0E0,6.11743E1,5.727636E1,2.1776966E1,0E0,2.9100021E1,0E0,7.854084E0,1.427384E0,5.258407E1,8.420738E0,0E0,0E0,0E0,0E0,0E0,0E0,0E0,0E0,0E0,0E0,0E0,0E0,0E0,0E0,0E0,0E0],"parents":[2147483647,0,0,1,1,2,2,3,3,4,4,6,6,7,7,8,8,9,9,13,13,14,14,15,15,16,16,17,17,19,19,20,20,21,21,23,23,25,25,26,26,27,27,28,28],"right_children":[2,4,6,8,10,-1,12,14,16,18,-1,-1,-1,20,22,24,26,28,-1,30,32,34,-1,36,-1,38,40,42,44,-1,-1,-1,-1,-1,-1,-1,-1,-1,-1,-1,-1,-1,-1,-1,-1],"split_conditions":[2.8308336E1,2.193121E1,4.509753E1,1.81041E1,1.2391749E2,1.7692481E-1,1.3842457E1,1.8022486E1,2.4258337E1,2.7000003E0,3.9815085E0,3.2029268E-1,1.3196694E0,2.2570833E1,2.2499998E1,2.421875E1,2.5704165E1,1E-1,1.2252238E0,1.7892578E1,2.2599997E1,2.0043749E1,3.3468907E0,8.000001E-1,1.3898861E0,1.964558E1,1.8671474E1,8.984038E1,1.01253456E2,-3.862662E-2,1.322937E0,1.2782162E0,1.2245928E-1,1.2181369E0,-4.5570806E-2,-3.796553E-2,-4.0752962E-1,-1.0510757E0,-2.9212597E-1,1.1986638E-1,-1.5562907E-1,-8.3548054E-2,6.972786E-1,-4.0386337E-1,1.8169147E-1],"split_indices":[0,2,3,2,3,0,2,2,0,1,0,0,0,0,0,0,0,1,0,2,0,0,0,1,0,2,2,3,3,0,0,0,0,0,0,0,0,0,0,0,0,0,0,0,0],"split_type":[0,0,0,0,0,0,0,0,0,0,0,0,0,0,0,0,0,0,0,0,0,0,0,0,0,0,0,0,0,0,0,0,0,0,0,0,0,0,0,0,0,0,0,0,0],"sum_hessian":[5.99E2,5.95E2,4E0,5.47E2,4.8E1,1E0,3E0,4.34E2,1.13E2,4.7E1,1E0,1E0,2E0,4.29E2,5E0,1.01E2,1.2E1,4.6E1,1E0,3E2,1.29E2,4E0,1E0,9.9E1,2E0,7E0,5E0,3E1,1.6E1,2.98E2,2E0,3E0,1.26E2,1E0,3E0,7.4E1,2.5E1,4E0,3E0,2E0,3E0,1.7E1,1.3E1,1.4E1,2E0],"tree_param":{"num_deleted":"0","num_feature":"4","num_nodes":"45","size_leaf_vector":"1"}},{"base_weights":[1.1769122E-1,9.603995E-2,2.6749845E0,1.1362562E-1,-2.5350466E0,1.5038596E-1,3.0930872E0,8.806675E-2,2.2866719E0,-1.867103E-1,-8.895452E-1,2.7224866E-1,1.0557358E0,3.0416518E-2,8.422861E-1,-7.976468E-2,3.4833112E-1,1.8508856E-1,9.324158E0,-4.426103E-3,-2.327669E-1,6.4297885E-2,8.706278E-1,1.2038381E0,-3.6590833E-2,3.3842824E0,8.115887E-1],"categories":[],"categories_nodes":[],"categories_segments":[],"categories_sizes":[],"default_left":[0,0,0,0,0,0,0,0,0,0,0,0,0,0,0,0,0,0,0,0,0,0,0,0,0,0,0],"id":11,"left_children":[1,3,5,7,9,-1,11,13,-1,-1,-1,-1,-1,15,17,19,21,23,25,-1,-1,-1,-1,-1,-1,-1,-1],"loss_changes":[3.296428E1,2.7864634E1,2.9936218E0,1.1313237E2,1.4451885E0,0E0,5.30941E-1,2.5715086E1,0E0,0E0,0E0,0E0,0E0,1.9328331E1,2.3239331E2,1.8543425E1,4.797275E1,4.7502537E1,8.336761E0,0E0,0E0,0E0,0E0,0E0,0E0,0E0,0E0],"parents":[2147483647,0,0,1,1,2,2,3,3,4,4,6,6,7,7,13,13,14,14,15,15,16,16,17,17,18,18],"right_children":[2,4,6,8,10,-1,12,14,-1,-1,-1,-1,-1,16,18,20,22,24,26,-1,-1,-1,-1,-1,-1,-1,-1],"split_conditions":[2.8308336E1,2.86E1,4.509753E1,2.6400002E1,1.9331251E1,1.5038596E-1,1.3842457E1,2.2314192E1,2.2866719E0,-1.867103E-1,-8.895452E-1,2.7224866E-1,1.0557358E0,2.2824999E1,1.0925626E2,3.211864E2,3.128111E2,2.2553936E1,2.0406248E1,-4.426103E-3,-2.327669E-1,6.4297885E-2,8.706278E-1,1.2038381E0,-3.6590833E-2,3.3842824E0,8.115887E-1],"split_indices":[0,1,3,1,0,0,2,2,0,0,0,0,0,0,3,3,3,2,0,0,0,0,0,0,0,0,0],"split_type":[0,0,0,0,0,0,0,0,0,0,0,0,0,0,0,0,0,0,0,0,0,0,0,0,0,0,0],"sum_hessian":[5.99E2,5.95E2,4E0,5.92E2,3E0,1E0,3E0,5.91E2,1E0,1E0,2E0,1E0,2E0,5.5E2,4.1E1,4.09E2,1.41E2,3.9E1,2E0,3.75E2,3.4E1,1.35E2,6E0,2E0,3.7E1,1E0,1E0],"tree_param":{"num_deleted":"0","num_feature":"4","num_nodes":"27","size_leaf_vector":"1"}},{"base_weights":[9.6966505E-2,-3.830534E-1,1.7585163E-1,-2.4067609E-1,-2.217575E0,1.510323E-1,1.9436709E0,-3.775927E-1,2.4551382E0,-1.5870374E-1,-7.3484564E-1,8.247823E-2,1.2565738E0,-4.612105E-1,1.2637343E0,3.5039475E0,-1.0369356E-1,2.319663E-3,6.5156543E-1,6.3860756E-1,2.8766396E0,-6.9021785E-1,-1.2129007E-1,8.1325775E-1,-1.2226025E-1,1.2747687E0,3.0200773E-1,7.2067626E-2,-1.7938354E0,3.0437994E0,1.122426E-1,1.404605E0,-9.5724833E-1,-5.7484176E-2,-2.9911706E-1,7.1640384E-1,-1.1300721E-1,8.7200195E-2,-1.4221731E-1,1.2173415E-2,1.3054862E0,-8.505398E-1,1.0990491E0,2.523568E0,-6.2166457E-3,5.0868917E-1,-1.13349505E-1,-4.93193E-3,1.7013084E0,-6.750854E-1,8.429795E-1],"categories":[],"categories_nodes":[],"categories_segments":[],"categories_sizes":[],"default_left":[0,0,0,0,0,0,0,0,0,0,0,0,0,0,0,0,0,0,0,0,0,0,0,0,0,0,0,0,0,0,0,0,0,0,0,0,0,0,0,0,0,0,0,0,0,0,0,0,0,0,0],"id":12,"left_children":[1,3,5,7,9,11,-1,13,15,-1,-1,17,19,21,23,25,-1,27,29,31,-1,33,35,-1,37,-1,-1,39,41,43,45,47,49,-1,-1,-1,-1,-1,-1,-1,-1,-1,-1,-1,-1,-1,-1,-1,-1,-1,-1],"loss_changes":[2.2787218E1,2.1667793E1,7.9743225E1,3.0455185E1,1.0537586E0,3.8927887E1,0E0,1.1150644E1,1.2961077E1,0E0,0E0,2.2168457E1,1.4834755E2,5.676758E0,8.354259E0,1.3058052E0,0E0,5.3623055E1,7.7069534E1,3.6794785E1,0E0,6.54056E0,2.0766745E1,0E0,5.735936E-1,0E0,0E0,5.5345085E1,1.0130978E2,1.8113135E2,3.943954E1,1.2134877E2,5.5034153E1,0E0,0E0,0E0,0E0,0E0,0E0,0E0,0E0,0E0,0E0,0E0,0E0,0E0,0E0,0E0,0E0,0E0,0E0],"parents":[2147483647,0,0,1,1,2,2,3,3,4,4,5,5,7,7,8,8,11,11,12,12,13,13,14,14,15,15,17,17,18,18,19,19,21,21,22,22,24,24,27,27,28,28,29,29,30,30,31,31,32,32],"right_children":[2,4,6,8,10,12,-1,14,16,-1,-1,18,20,22,24,26,-1,28,30,32,-1,34,36,-1,38,-1,-1,40,42,44,46,48,50,-1,-1,-1,-1,-1,-1,-1,-1,-1,-1,-1,-1,-1,-1,-1,-1,-1,-1],"split_conditions":[1.9895834E1,1.43E1,2.6400002E1,1.2391749E2,1.9331251E1,2.1749481E1,1.9436709E0,3E-1,1.9791666E1,-1.5870374E-1,-7.3484564E-1,2.4385414E1,1.2391749E2,9.119484E1,1.9172916E1,1.970625E1,-1.0369356E-1,2.4016665E1,2.4683334E1,2.4004171E1,2.8766396E0,8.59357E1,9.169274E1,8.1325775E-1,1.9489582E1,1.2747687E0,3.0200773E-1,2.4004171E1,1.964558E1,1E-1,7.880368E1,2.2618746E1,2.7534704E1,-5.7484176E-2,-2.9911706E-1,7.1640384E-1,-1.1300721E-1,8.7200195E-2,-1.4221731E-1,1.2173415E-2,1.3054862E0,-8.505398E-1,1.0990491E0,2.523568E0,-6.2166457E-3,5.0868917E-1,-1.13349505E-1,-4.93193E-3,1.7013084E0,-6.750854E-1,8.429795E-1],"split_indices":[0,1,1,3,0,2,0,1,0,0,0,0,3,3,0,0,0,0,0,0,0,3,3,0,0,0,0,0,2,1,3,0,2,0,0,0,0,0,0,0,0,0,0,0,0,0,0,0,0,0,0],"split_type":[0,0,0,0,0,0,0,0,0,0,0,0,0,0,0,0,0,0,0,0,0,0,0,0,0,0,0,0,0,0,0,0,0,0,0,0,0,0,0,0,0,0,0,0,0,0,0,0,0,0,0],"sum_hessian":[5.99E2,8.4E1,5.15E2,7.9E1,5E0,5.14E2,1E0,7.6E1,3E0,1E0,4E0,4.85E2,2.9E1,7.3E1,3E0,2E0,1E0,4.26E2,5.9E1,2.8E1,1E0,4.3E1,3E1,1E0,2E0,1E0,1E0,4.11E2,1.5E1,1E1,4.9E1,1.9E1,9E0,1.7E1,2.6E1,2E0,2.8E1,1E0,1E0,4.09E2,2E0,1.3E1,2E0,3E0,7E0,1.1E1,3.8E1,1.5E1,4E0,7E0,2E0],"tree_param":{"num_deleted":"0","num_feature":"4","num_nodes":"51","size_leaf_vector":"1"}},{"base_weights":[8.912312E-2,6.726829E-2,1.5167832E0,8.853083E-2,-1.4959639E0,-4.9155998E-1,2.1608183E0,1.3368821E-2,4.5737296E-1,-2.4964519E0,1.2863684E-1,-2.7272645E-1,5.152445E-2,6.526845E-1,7.900605E-1,2.0234238E-1,-1.787835E-1,9.098723E0,1.853995E-1,-9.0918684E-1,-5.396519E-2,-1.6155052E-1,1.4987984E-1,5.3855613E-2,2.3985244E-1,2.549743E-2,1.9158609E0,-5.2739084E-1,1.3581514E-1,3.8987734E0,1.956525E-1,1.1413922E0,-4.2315254E-1,-7.624769E-2,3.5499574E-3,2.5479352E-2,-7.7840596E-1,-2.0314673E-1,1.6063495E0,2.7002828E-2,-3.679474E-1,4.614469E-1,-4.1435957E-2,1.5606862E-1,2.464467E0,-9.969683E-1,4.613603E-2],"categories":[],"categories_nodes":[],"categories_segments":[],"categories_sizes":[],"default_left":[0,0,0,0,0,0,0,0,0,0,0,0,0,0,0,0,0,0,0,0,0,0,0,0,0,0,0,0,0,0,0,0,0,0,0,0,0,0,0,0,0,0,0,0,0,0,0],"id":13,"left_children":[1,3,5,7,9,11,13,15,17,19,21,-1,-1,23,-1,25,27,29,31,-1,-1,33,-1,-1,-1,35,37,39,41,-1,-1,43,45,-1,-1,-1,-1,-1,-1,-1,-1,-1,-1,-1,-1,-1,-1],"loss_changes":[1.8618736E1,1.9809511E1,1.2703167E1,1.6211792E1,1.332428E1,9.869837E-1,3.271572E0,1.7719976E1,2.3098468E2,5.6420574E0,5.113052E-1,0E0,0E0,6.488907E-2,0E0,7.449581E1,2.6612103E1,9.0277756E1,5.69148E1,0E0,0E0,5.117791E-2,0E0,0E0,0E0,3.5103294E1,2.0870401E2,4.9747246E1,4.9383682E1,0E0,0E0,1.626907E2,1.00901115E2,0E0,0E0,0E0,0E0,0E0,0E0,0E0,0E0,0E0,0E0,0E0,0E0,0E0,0E0],"parents":[2147483647,0,0,1,1,2,2,3,3,4,4,5,5,6,6,7,7,8,8,9,9,10,10,13,13,15,15,16,16,17,17,18,18,21,21,25,25,26,26,27,27,28,28,31,31,32,32],"right_children":[2,4,6,8,10,12,14,16,18,20,22,-1,-1,24,-1,26,28,30,32,-1,-1,34,-1,-1,-1,36,38,40,42,-1,-1,44,46,-1,-1,-1,-1,-1,-1,-1,-1,-1,-1,-1,-1,-1,-1],"split_conditions":[2.7310415E1,2.6341665E1,4.509753E1,2.3389582E1,8.111971E1,2.8308336E1,2.7483335E1,3E-1,2.3408333E1,1.5124284E1,2.6764585E1,-2.7272645E-1,5.152445E-2,1E-1,7.900605E-1,1.3595874E2,2.7000003E0,1E-1,8.234047E1,-9.0918684E-1,-5.396519E-2,2.643125E1,1.4987984E-1,5.3855613E-2,2.3985244E-1,2.3225E1,1.4581113E1,2.2054167E1,3.7E0,3.8987734E0,1.956525E-1,8.154941E1,8.587735E1,-7.624769E-2,3.5499574E-3,2.5479352E-2,-7.7840596E-1,-2.0314673E-1,1.6063495E0,2.7002828E-2,-3.679474E-1,4.614469E-1,-4.1435957E-2,1.5606862E-1,2.464467E0,-9.969683E-1,4.613603E-2],"split_indices":[0,0,3,0,3,0,0,1,0,2,0,0,0,1,0,3,1,1,3,0,0,0,0,0,0,0,2,0,1,0,0,3,3,0,0,0,0,0,0,0,0,0,0,0,0,0,0],"split_type":[0,0,0,0,0,0,0,0,0,0,0,0,0,0,0,0,0,0,0,0,0,0,0,0,0,0,0,0,0,0,0,0,0,0,0,0,0,0,0,0,0,0,0,0,0,0,0],"sum_hessian":[5.99E2,5.91E2,8E0,5.84E2,7E0,2E0,6E0,4.86E2,9.8E1,4E0,3E0,1E0,1E0,2E0,4E0,2.45E2,2.41E2,2E0,9.6E1,3E0,1E0,2E0,1E0,1E0,1E0,2.23E2,2.2E1,1.14E2,1.27E2,1E0,1E0,3.7E1,5.9E1,1E0,1E0,2.19E2,4E0,1.3E1,9E0,6.1E1,5.3E1,2E1,1.07E2,3.5E1,2E0,9E0,5E1],"tree_param":{"num_deleted":"0","num_feature":"4","num_nodes":"47","size_leaf_vector":"1"}},{"base_weights":[7.316964E-2,1.9161334E-2,5.5892503E-1,5.4606613E-2,-1.1472998E0,2.3563614E0,6.0475085E-2,8.982904E-1,-4.487953E-5,-1.9696367E0,-2.888558E-1,1.5179499E0,1.8625947E0,-1.3793181E0,4.7566587E-1,3.647825E-1,1.7801818E0,-1.4202318E-2,1.0490595E0,-8.221225E-1,-1.2559782E0,-1.1332238E0,3.2219887E-1,2.2571032E0,-9.919105E-1,-7.934761E-2,-2.110823E0,-8.0252165E-1,1.1724242E0,2.8223593E0,8.844279E-2,4.0731862E-1,-1.276523E-1,-8.25986E-2,-4.1911277E-1,-7.936435E-2,-4.0038E-1,1.7158936E-1,-1.182216E-1,5.2259046E-1,3.6154323E0,3.1653833E-1,-2.4943371E-1,-2.5942664E0,1.1847568E-1,4.4591534E-1,-1.0929286E0,2.6030269E0,-3.4836492E-1,1.6396946E-1,1.1060922E0,-4.210152E-1,2.9856035E-1,4.488701E-2,1.390306E0,-6.966694E-2,2.4583186E-1,4.9662925E-2,-1.0286265E-1,2.3400033E-1,-1.14669375E-1,1.3514137E0,3.6737454E-1,1.2096405E-3,1.2580891E-1,-1.9679362E-1,-8.552185E-1,-5.7845086E-1,-3.0466503E-2,4.703061E-1,1.6594794E0,-3.5325354E-1,8.423886E-1],"categories":[],"categories_nodes":[],"categories_segments":[],"categories_sizes":[],"default_left":[0,0,0,0,0,0,0,0,0,0,0,0,0,0,0,0,0,0,0,0,0,0,0,0,0,0,0,0,0,0,0,0,0,0,0,0,0,0,0,0,0,0,0,0,0,0,0,0,0,0,0,0,0,0,0,0,0,0,0,0,0,0,0,0,0,0,0,0,0,0,0,0,0],"id":14,"left_children":[1,3,5,7,9,11,13,15,17,19,21,23,-1,25,27,29,-1,31,-1,-1,33,35,37,39,-1,41,43,45,47,49,51,53,55,-1,-1,-1,-1,-1,57,59,61,63,-1,65,-1,-1,67,69,71,-1,-1,-1,-1,-1,-1,-1,-1,-1,-1,-1,-1,-1,-1,-1,-1,-1,-1,-1,-1,-1,-1,-1,-1],"loss_changes":[1.57301855E1,2.2430586E1,5.3613415E1,2.4253153E1,1.0725943E1,3.2562996E1,2.934996E1,8.380527E1,2.4555767E1,9.586487E-1,5.008719E0,5.0253746E1,0E0,1.0292793E1,3.4783234E1,2.0124165E1,0E0,2.3675838E1,0E0,0E0,4.4536114E-1,3.4665728E-1,7.2762996E-1,2.4027035E1,0E0,1.7519097E0,9.504215E0,1.0930512E1,5.529792E1,3.887886E0,3.9272987E1,1.1368168E2,3.8815178E1,0E0,0E0,0E0,0E0,0E0,2.4800718E-1,1.6956052E0,7.240425E0,1.2684253E-1,0E0,1.1125641E0,0E0,0E0,1.0568647E1,3.0745056E1,3.7328167E1,0E0,0E0,0E0,0E0,0E0,0E0,0E0,0E0,0E0,0E0,0E0,0E0,0E0,0E0,0E0,0E0,0E0,0E0,0E0,0E0,0E0,0E0,0E0,0E0],"parents":[2147483647,0,0,1,1,2,2,3,3,4,4,5,5,6,6,7,7,8,8,9,9,10,10,11,11,13,13,14,14,15,15,17,17,20,20,21,21,22,22,23,23,25,25,26,26,27,27,28,28,29,29,30,30,31,31,32,32,38,38,39,39,40,40,41,41,43,43,46,46,47,47,48,48],"right_children":[2,4,6,8,10,12,14,16,18,20,22,24,-1,26,28,30,-1,32,-1,-1,34,36,38,40,-1,42,44,46,48,50,52,54,56,-1,-1,-1,-1,-1,58,60,62,64,-1,66,-1,-1,68,70,72,-1,-1,-1,-1,-1,-1,-1,-1,-1,-1,-1,-1,-1,-1,-1,-1,-1,-1,-1,-1,-1,-1,-1,-1],"split_conditions":[9.299999E0,7E0,1.0700003E1,9.567131E0,7.532358E1,1.0700001E1,1.0163227E1,9.54E0,6.8999996E0,7.4E0,2.062917E1,1.05E1,1.8625947E0,2.1072916E1,8.061455E1,2.019375E1,1.7801818E0,7.8845985E1,1.0490595E0,-8.221225E-1,2.0477081E1,2.0339584E1,8.3E0,2.2189583E1,-9.919105E-1,3.0038068E2,2.7568225E2,1.51463175E1,3.1768454E2,1.9983332E1,9.0000004E-1,7.8484665E1,2.2314192E1,-8.25986E-2,-4.1911277E-1,-7.936435E-2,-4.0038E-1,1.7158936E-1,2.0733332E1,1E1,1.24806595E2,1.1100002E1,-2.4943371E-1,1.13E1,1.1847568E-1,4.4591534E-1,1.4383114E1,1.5E1,2.1177084E1,1.6396946E-1,1.1060922E0,-4.210152E-1,2.9856035E-1,4.488701E-2,1.390306E0,-6.966694E-2,2.4583186E-1,4.9662925E-2,-1.0286265E-1,2.3400033E-1,-1.14669375E-1,1.3514137E0,3.6737454E-1,1.2096405E-3,1.2580891E-1,-1.9679362E-1,-8.552185E-1,-5.7845086E-1,-3.0466503E-2,4.703061E-1,1.6594794E0,-3.5325354E-1,8.423886E-1],"split_indices":[1,1,1,2,3,1,2,2,1,1,0,1,0,0,3,0,0,3,0,0,0,0,1,0,0,3,3,3,3,0,1,3,2,0,0,0,0,0,0,1,3,1,0,1,0,0,2,1,0,0,0,0,0,0,0,0,0,0,0,0,0,0,0,0,0,0,0,0,0,0,0,0,0],"split_type":[0,0,0,0,0,0,0,0,0,0,0,0,0,0,0,0,0,0,0,0,0,0,0,0,0,0,0,0,0,0,0,0,0,0,0,0,0,0,0,0,0,0,0,0,0,0,0,0,0,0,0,0,0,0,0,0,0,0,0,0,0,0,0,0,0,0,0,0,0,0,0,0,0],"sum_hessian":[5.99E2,5.4E2,5.9E1,5.25E2,1.5E1,1.2E1,4.7E1,3.1E1,4.94E2,7E0,8E0,1.1E1,1E0,1E1,3.7E1,2.9E1,2E0,4.93E2,1E0,2E0,5E0,3E0,5E0,1E1,1E0,4E0,6E0,1.3E1,2.4E1,2E0,2.7E1,1.04E2,3.89E2,1E0,4E0,1E0,2E0,3E0,2E0,5E0,5E0,3E0,1E0,5E0,1E0,1E0,1.2E1,1.2E1,1.2E1,1E0,1E0,1E1,1.7E1,9.9E1,5E0,3.51E2,3.8E1,1E0,1E0,4E0,1E0,3E0,2E0,1E0,2E0,1E0,4E0,6E0,6E0,1E1,2E0,1E1,2E0],"tree_param":{"num_deleted":"0","num_feature":"4","num_nodes":"73","size_leaf_vector":"1"}},{"base_weights":[6.457173E-2,-7.394833E-2,2.3301102E-1,-1.8736836E-2,-9.766872E-1,8.573684E-2,1.1337781E0,-6.776465E-2,2.4929755E0,-6.782412E-1,-2.1010996E-1,2.0598745E-1,-1.2112441E0,2.1946504E0,3.464853E-1,-2.8165728E-1,2.1418253E-1,1.0164816E0,1.4813167E0,-1.266068E0,1.2328523E0,9.256359E-3,1.0406692E0,1.2895312E0,-1.7284122E0,-4.4765383E-1,2.5399177E0,2.0943391E0,-7.2532606E-1,7.5707275E-1,-3.122826E-1,7.315414E-2,2.149112E0,1.1462184E-1,1.3120633E0,1.0365472E-1,-4.636961E-1,1.0480213E0,-7.7077484E-1,1.75396E-1,-7.386613E-1,4.3411636E0,-2.3256078E-2,4.379511E-4,5.155206E-1,7.805093E-2,-1.8689592E0,2.7987845E0,-1.6263278E-1,-6.8060493E-1,2.9233022E0,-2.3273864E0,6.882186E-2,-4.549608E-1,-6.1687592E-2,6.165315E-2,-2.972766E-1,4.3435235E-2,1.832852E0,5.048688E-1,8.5559756E-2,4.2688847E-3,-4.6886826E-1,-1.5163965E-2,6.8311334E-1,-6.572345E-1,3.788883E-2,2.3416615E0,5.2240634E-1,-4.0858373E-1,5.385595E-1,-6.069277E-1,6.645584E-2,1.8292527E-1,1.0021086E0,1.3308823E0,9.0378575E-2,-7.769862E-1,-1.9156738E-1,5.507033E-1,-5.128513E-1],"categories":[],"categories_nodes":[],"categories_segments":[],"categories_sizes":[],"default_left":[0,0,0,0,0,0,0,0,0,0,0,0,0,0,0,0,0,0,0,0,0,0,0,0,0,0,0,0,0,0,0,0,0,0,0,0,0,0,0,0,0,0,0,0,0,0,0,0,0,0,0,0,0,0,0,0,0,0,0,0,0,0,0,0,0,0,0,0,0,0,0,0,0,0,0,0,0,0,0,0,0],"id":15,"left_children":[1,3,5,7,9,11,13,15,17,-1,19,21,23,25,27,29,31,33,-1,35,37,39,41,43,45,-1,47,49,51,-1,53,55,57,-1,59,-1,-1,-1,61,63,65,67,69,-1,-1,-1,71,73,-1,-1,75,77,79,-1,-1,-1,-1,-1,-1,-1,-1,-1,-1,-1,-1,-1,-1,-1,-1,-1,-1,-1,-1,-1,-1,-1,-1,-1,-1,-1,-1],"loss_changes":[1.4016563E1,1.6429415E1,3.5853584E1,3.8589787E1,1.8228104E1,3.6744785E1,3.0977837E1,1.8574398E1,1.6638813E1,0E0,2.1369074E1,3.529506E1,2.8095263E1,2.4157082E1,4.460658E1,1.582253E1,3.6135822E1,4.3629456E-1,0E0,4.138652E0,2.986845E1,2.1874844E1,1.4407161E2,2.2071548E0,5.237564E0,0E0,1.3484772E1,3.918311E1,1.9244267E1,0E0,2.2037142E1,1.7808298E1,7.055681E1,0E0,6.624236E-1,0E0,0E0,0E0,2.509508E0,6.849376E1,4.046939E1,7.6474915E1,8.034404E1,0E0,0E0,0E0,5.60355E0,1.4560646E1,0E0,0E0,3.0400108E1,5.63324E-1,3.77006E1,0E0,0E0,0E0,0E0,0E0,0E0,0E0,0E0,0E0,0E0,0E0,0E0,0E0,0E0,0E0,0E0,0E0,0E0,0E0,0E0,0E0,0E0,0E0,0E0,0E0,0E0,0E0,0E0],"parents":[2147483647,0,0,1,1,2,2,3,3,4,4,5,5,6,6,7,7,8,8,10,10,11,11,12,12,13,13,14,14,15,15,16,16,17,17,19,19,20,20,21,21,22,22,23,23,24,24,26,26,27,27,28,28,30,30,31,31,32,32,34,34,38,38,39,39,40,40,41,41,42,42,46,46,47,47,50,50,51,51,52,52],"right_children":[2,4,6,8,10,12,14,16,18,-1,20,22,24,26,28,30,32,34,-1,36,38,40,42,44,46,-1,48,50,52,-1,54,56,58,-1,60,-1,-1,-1,62,64,66,68,70,-1,-1,-1,72,74,-1,-1,76,78,80,-1,-1,-1,-1,-1,-1,-1,-1,-1,-1,-1,-1,-1,-1,-1,-1,-1,-1,-1,-1,-1,-1,-1,-1,-1,-1,-1,-1],"split_conditions":[2.1933332E1,2.1785418E1,2.7000003E0,2.1760416E1,1.2979984E1,1.7000002E0,2.2564583E1,9.415515E1,2.0161608E1,-6.782412E-1,1E-1,1.2027846E2,1.0163227E1,3.2000003E0,4.4999995E0,2.1134293E0,2.0605873E1,1.1525623E1,1.4813167E0,2.1791666E1,9.000001E-1,2.5264582E1,1.3697493E2,2.2054167E1,2.1970835E1,-4.4765383E-1,1.6208996E1,2.2570833E1,7.1E0,7.5707275E-1,3.9317E1,1.8367939E1,1.01253456E2,1.1462184E-1,2.1766668E1,1.0365472E-1,-4.636961E-1,1.0480213E0,2.1862501E1,2.45375E1,2.5704165E1,1E-1,8E-1,4.379511E-4,5.155206E-1,7.805093E-2,2.0056877E1,1.0185519E1,-1.6263278E-1,-6.8060493E-1,1.51884165E1,1.33649235E1,1.0400001E1,-4.549608E-1,-6.1687592E-2,6.165315E-2,-2.972766E-1,4.3435235E-2,1.832852E0,5.048688E-1,8.5559756E-2,4.2688847E-3,-4.6886826E-1,-1.5163965E-2,6.8311334E-1,-6.572345E-1,3.788883E-2,2.3416615E0,5.2240634E-1,-4.0858373E-1,5.385595E-1,-6.069277E-1,6.645584E-2,1.8292527E-1,1.0021086E0,1.3308823E0,9.0378575E-2,-7.769862E-1,-1.9156738E-1,5.507033E-1,-5.128513E-1],"split_indices":[0,0,1,0,2,1,0,3,2,0,1,3,2,1,1,3,2,2,0,0,1,0,3,0,0,0,2,0,1,0,3,2,3,0,0,0,0,0,0,0,0,1,1,0,0,0,2,2,0,0,2,2,1,0,0,0,0,0,0,0,0,0,0,0,0,0,0,0,0,0,0,0,0,0,0,0,0,0,0,0,0],"split_type":[0,0,0,0,0,0,0,0,0,0,0,0,0,0,0,0,0,0,0,0,0,0,0,0,0,0,0,0,0,0,0,0,0,0,0,0,0,0,0,0,0,0,0,0,0,0,0,0,0,0,0,0,0,0,0,0,0,0,0,0,0,0,0,0,0,0,0,0,0,0,0,0,0,0,0,0,0,0,0,0,0],"sum_hessian":[5.99E2,3.29E2,2.7E2,3.11E2,1.8E1,2.33E2,3.7E1,3.06E2,5E0,6E0,1.2E1,2.14E2,1.9E1,1.5E1,2.2E1,1.74E2,1.32E2,4E0,1E0,7E0,5E0,1.74E2,4E1,3E0,1.6E1,1E0,1.4E1,8E0,1.4E1,1E0,1.73E2,1.24E2,8E0,2E0,2E0,1E0,6E0,2E0,3E0,1.43E2,3.1E1,9E0,3.1E1,1E0,2E0,1E0,1.5E1,1.3E1,1E0,1E0,7E0,4E0,1E1,1.3E1,1.6E2,1.11E2,1.3E1,6E0,2E0,1E0,1E0,2E0,1E0,1.3E2,1.3E1,1.1E1,2E1,3E0,6E0,1.8E1,1.3E1,1.4E1,1E0,3E0,1E1,4E0,3E0,3E0,1E0,5E0,5E0],"tree_param":{"num_deleted":"0","num_feature":"4","num_nodes":"81","size_leaf_vector":"1"}},{"base_weights":[5.702267E-2,1.86149E0,4.483692E-2,8.826781E-2,9.8449236E-1,-9.076895E-1,7.263057E-2,-1.8465317E0,1.1212765E0,9.6187204E-1,3.4253463E-2,5.912449E-1,-2.3932116E0,1.4196541E0,-5.473402E-1,2.1835747E0,-4.417951E-1,-4.990035E-1,9.004074E-2,3.7403557E-1,-1.0797537E-1,-5.099699E-1,-8.4008276E-1,-1.5157281E0,6.0349447E-1,3.3433578E0,2.7326807E-1,-1.4051728E0,4.470708E-1,-3.5335472E-1,-8.4260947E-1,3.6778893E0,6.850585E-2,-8.219791E-3,-2.2126666E-1,-5.743373E-1,-1.0774041E-1,3.7229064E-4,2.7120024E-1,1.3765965E-1,1.2685134E0,-1.0771992E-1,5.152411E-1,-5.3926665E-1,8.351105E-2,1.8791199E-3,1.5584841E-1,-1.6744074E-1,4.926776E-1,-9.837617E-2,1.7534264E0,-6.9502485E-3,1.1577507E-1],"categories":[],"categories_nodes":[],"categories_segments":[],"categories_sizes":[],"default_left":[0,0,0,0,0,0,0,0,0,0,0,0,0,0,0,0,0,0,0,0,0,0,0,0,0,0,0,0,0,0,0,0,0,0,0,0,0,0,0,0,0,0,0,0,0,0,0,0,0,0,0,0,0],"id":16,"left_children":[1,3,5,-1,-1,7,9,11,13,15,17,19,21,-1,23,25,27,29,31,-1,-1,33,-1,35,37,39,41,43,45,47,-1,49,51,-1,-1,-1,-1,-1,-1,-1,-1,-1,-1,-1,-1,-1,-1,-1,-1,-1,-1,-1,-1],"loss_changes":[1.3109808E1,7.937462E0,1.5871017E1,0E0,0E0,3.4453415E1,1.9794558E1,1.7407173E1,3.8741394E1,4.212143E1,1.6644848E1,2.3193169E0,6.2379417E0,0E0,6.487006E0,2.7888401E1,1.0903975E1,1.6836956E1,3.8843597E1,0E0,0E0,3.0926985E-1,0E0,6.959553E-1,5.41821E-1,1.8482407E1,6.0959983E0,4.4639425E0,2.2022069E-1,2.1758463E1,0E0,2.7956764E1,1.4674399E1,0E0,0E0,0E0,0E0,0E0,0E0,0E0,0E0,0E0,0E0,0E0,0E0,0E0,0E0,0E0,0E0,0E0,0E0,0E0,0E0],"parents":[2147483647,0,0,1,1,2,2,5,5,6,6,7,7,8,8,9,9,10,10,11,11,12,12,14,14,15,15,16,16,17,17,18,18,21,21,23,23,24,24,25,25,26,26,27,27,28,28,29,29,31,31,32,32],"right_children":[2,4,6,-1,-1,8,10,12,14,16,18,20,22,-1,24,26,28,30,32,-1,-1,34,-1,36,38,40,42,44,46,48,-1,50,52,-1,-1,-1,-1,-1,-1,-1,-1,-1,-1,-1,-1,-1,-1,-1,-1,-1,-1,-1,-1],"split_conditions":[7.4128532E0,2.1602087E1,8.649369E0,8.826781E-2,9.8449236E-1,2.1866667E1,9.582358E0,5.820716E1,2.1956251E1,3.8999999E0,1.1341428E1,2.1366667E1,2.0947918E1,1.4196541E0,6E-1,2.169375E1,9.085988E0,2.4747917E1,1.1402683E1,3.7403557E-1,-1.0797537E-1,2.0889582E1,-8.4008276E-1,2.2268751E1,2.2054167E1,8.6758286E1,1.5E0,2.1375002E1,9.178235E0,2.3697916E1,-8.4260947E-1,2.0366667E1,1.0677739E2,-8.219791E-3,-2.2126666E-1,-5.743373E-1,-1.0774041E-1,3.7229064E-4,2.7120024E-1,1.3765965E-1,1.2685134E0,-1.0771992E-1,5.152411E-1,-5.3926665E-1,8.351105E-2,1.8791199E-3,1.5584841E-1,-1.6744074E-1,4.926776E-1,-9.837617E-2,1.7534264E0,-6.9502485E-3,1.1577507E-1],"split_indices":[2,0,2,0,0,0,2,3,0,1,2,0,0,0,1,0,2,0,2,0,0,0,0,0,0,3,1,0,2,0,0,0,3,0,0,0,0,0,0,0,0,0,0,0,0,0,0,0,0,0,0,0,0],"split_type":[0,0,0,0,0,0,0,0,0,0,0,0,0,0,0,0,0,0,0,0,0,0,0,0,0,0,0,0,0,0,0,0,0,0,0,0,0,0,0,0,0,0,0,0,0,0,0,0,0,0,0,0,0],"sum_hessian":[5.99E2,3E0,5.96E2,2E0,1E0,1.6E1,5.8E2,1.1E1,5E0,2.3E1,5.57E2,2E0,9E0,1E0,4E0,1.2E1,1.1E1,5.2E1,5.05E2,1E0,1E0,2E0,7E0,2E0,2E0,7E0,5E0,5E0,6E0,5E1,2E0,2E0,5.03E2,1E0,1E0,1E0,1E0,1E0,1E0,2E0,5E0,4E0,1E0,4E0,1E0,1E0,5E0,4.6E1,4E0,1E0,1E0,3.91E2,1.12E2],"tree_param":{"num_deleted":"0","num_feature":"4","num_nodes":"53","size_leaf_vector":"1"}},{"base_weights":[4.6650223E-2,2.8852873E-2,1.212137E0,-8.690318E-1,4.8928127E-2,-4.6837744E-1,1.7591951E0,-3.292008E-1,-1.4439678E0,6.468356E-2,-1.0856705E0,-2.4319154E-1,3.2421686E-2,6.885173E-1,2.0497627E0,2.840097E-1,-9.122839E-1,-5.407728E-1,-1.4535034E-1,1.9146353E-1,-7.148372E-2,-1.7878537E0,6.3476086E-2,5.1586535E-2,2.5824624E-1,6.76523E-1,1.8427621E-1,-1.2369609E0,1.06665164E-1,7.9181457E-1,7.2553225E-2,1.5833434E-2,-6.756718E-1,-7.524409E-1,-1.4148599E-1,-9.578934E-2,1.8176967E-1,-4.60793E-1,-1.5768749E-1,1.558442E-1,1.4383323E0,-5.0284195E-1,6.728941E-2,-3.786284E-2,3.2050925E-1,-3.317955E-1,1.09121285E-1],"categories":[],"categories_nodes":[],"categories_segments":[],"categories_sizes":[],"default_left":[0,0,0,0,0,0,0,0,0,0,0,0,0,0,0,0,0,0,0,0,0,0,0,0,0,0,0,0,0,0,0,0,0,0,0,0,0,0,0,0,0,0,0,0,0,0,0],"id":17,"left_children":[1,3,5,7,9,11,13,15,17,19,21,-1,-1,23,25,-1,27,-1,-1,29,31,33,35,-1,-1,-1,-1,37,-1,39,41,43,45,-1,-1,-1,-1,-1,-1,-1,-1,-1,-1,-1,-1,-1,-1],"loss_changes":[1.2410572E1,1.0713477E1,9.09802E0,3.559432E0,1.0438356E1,6.794962E-1,7.664318E-1,6.8153033E0,1.1910849E0,9.905547E0,6.568777E0,0E0,0E0,1.1899376E-1,8.8459015E-2,0E0,2.9096217E0,0E0,0E0,2.1144764E1,1.46241045E1,3.557416E0,1.0239632E0,0E0,0E0,0E0,0E0,2.5615597E-1,0E0,5.0921867E1,6.644936E1,3.6464436E1,1.6056797E1,0E0,0E0,0E0,0E0,0E0,0E0,0E0,0E0,0E0,0E0,0E0,0E0,0E0,0E0],"parents":[2147483647,0,0,1,1,2,2,3,3,4,4,5,5,6,6,7,7,8,8,9,9,10,10,13,13,14,14,16,16,19,19,20,20,21,21,22,22,27,27,29,29,30,30,31,31,32,32],"right_children":[2,4,6,8,10,12,14,16,18,20,22,-1,-1,24,26,-1,28,-1,-1,30,32,34,36,-1,-1,-1,-1,38,-1,40,42,44,46,-1,-1,-1,-1,-1,-1,-1,-1,-1,-1,-1,-1,-1,-1],"split_conditions":[2.7310415E1,1.8397917E1,4.509753E1,1.8297915E1,2.6341665E1,2.8308336E1,2.7483335E1,8.3754036E1,1.8364584E1,3E-1,8.111971E1,-2.4319154E-1,3.2421686E-2,1E-1,1.0925626E2,2.840097E-1,2.2148045E1,-5.407728E-1,-1.4535034E-1,7.880368E1,1.9242327E1,2.6764585E1,2.6764585E1,5.1586535E-2,2.5824624E-1,6.76523E-1,1.8427621E-1,1.8158335E1,1.06665164E-1,7.8484665E1,8.135312E1,1.734083E1,9.386063E1,-7.524409E-1,-1.4148599E-1,-9.578934E-2,1.8176967E-1,-4.60793E-1,-1.5768749E-1,1.558442E-1,1.4383323E0,-5.0284195E-1,6.728941E-2,-3.786284E-2,3.2050925E-1,-3.317955E-1,1.09121285E-1],"split_indices":[0,0,3,0,0,0,0,3,0,1,3,0,0,1,3,0,2,0,0,3,2,0,0,0,0,0,0,0,0,3,3,2,3,0,0,0,0,0,0,0,0,0,0,0,0,0,0],"split_type":[0,0,0,0,0,0,0,0,0,0,0,0,0,0,0,0,0,0,0,0,0,0,0,0,0,0,0,0,0,0,0,0,0,0,0,0,0,0,0,0,0,0,0,0,0,0,0],"sum_hessian":[5.99E2,5.91E2,8E0,1.2E1,5.79E2,2E0,6E0,7E0,5E0,5.72E2,7E0,1E0,1E0,2E0,4E0,2E0,5E0,3E0,2E0,2.96E2,2.76E2,4E0,3E0,1E0,1E0,3E0,1E0,4E0,1E0,4.8E1,2.48E2,2.42E2,3.4E1,2E0,2E0,2E0,1E0,2E0,2E0,4.6E1,2E0,1.9E1,2.29E2,2.14E2,2.8E1,2.4E1,1E1],"tree_param":{"num_deleted":"0","num_feature":"4","num_nodes":"47","size_leaf_vector":"1"}},{"base_weights":[3.3416137E-2,4.3995637E-2,-4.6617845E-1,2.853837E-2,1.3884791E0,1.5996301E0,1.7892662E-2,7.8186795E-2,8.424979E-1,-5.769347E-2,2.3000057E-1,-2.8595366E-2,-1.006778E0,7.342492E-1,-1.1948237E-1,1.7959917E-2,-1.12193786E-1,4.4363424E-1,-4.011419E-1,3.18278E-1,-5.055326E-1,-4.674196E-1,5.314302E-2],"categories":[],"categories_nodes":[],"categories_segments":[],"categories_sizes":[],"default_left":[0,0,0,0,0,0,0,0,0,0,0,0,0,0,0,0,0,0,0,0,0,0,0],"id":18,"left_children":[1,3,-1,5,-1,7,9,-1,-1,11,13,15,17,19,21,-1,-1,-1,-1,-1,-1,-1,-1],"loss_changes":[1.014435E1,4.2171486E1,0E0,9.939708E0,0E0,5.7418995E0,9.520493E0,0E0,0E0,1.2067264E1,2.757903E1,1.303808E1,1.2652067E1,5.2370148E1,3.9961033E1,0E0,0E0,0E0,0E0,0E0,0E0,0E0,0E0],"parents":[2147483647,0,0,1,1,3,3,5,5,6,6,9,9,10,10,11,11,12,12,13,13,14,14],"right_children":[2,4,-1,6,-1,8,10,-1,-1,12,14,16,18,20,22,-1,-1,-1,-1,-1,-1,-1,-1],"split_conditions":[2.86E1,2.6400002E1,-4.6617845E-1,7.4128532E0,1.3884791E0,2.1602087E1,2.2824999E1,7.8186795E-2,8.424979E-1,2.2666664E1,2.3754166E1,1.7217714E2,8.827344E0,1.906301E1,7.222015E1,1.7959917E-2,-1.12193786E-1,4.4363424E-1,-4.011419E-1,3.18278E-1,-5.055326E-1,-4.674196E-1,5.314302E-2],"split_indices":[1,1,0,2,0,0,0,0,0,0,0,3,2,2,3,0,0,0,0,0,0,0,0],"split_type":[0,0,0,0,0,0,0,0,0,0,0,0,0,0,0,0,0,0,0,0,0,0,0],"sum_hessian":[5.99E2,5.96E2,3E0,5.95E2,1E0,3E0,5.92E2,2E0,1E0,4.37E2,1.55E2,4.25E2,1.2E1,6.3E1,9.2E1,3.39E2,8.6E1,1E0,1.1E1,5.6E1,7E0,1.5E1,7.7E1],"tree_param":{"num_deleted":"0","num_feature":"4","num_nodes":"23","size_leaf_vector":"1"}},{"base_weights":[2.5374152E-2,4.0800357E-1,-1.4764178E-2,1.1636484E-1,1.7670692E0,-1.6771047E0,2.5884677E-2,-5.445743E-1,5.681724E-1,2.1916072E0,-3.080661E-1,-1.9221708E-1,-2.922406E0,4.4158044E-1,-3.0896591E-2,6.1848396E-1,-7.9024804E-1,-4.5767924E-1,1.1321826E0,2.9247406E0,-2.4957275E-1,2.8488743E-1,-5.4079485E-1,-1.0501875E0,-2.9537174E-1,1.5712331E-1,3.1651456E0,-1.0143653E0,3.8621467E-2,7.137747E-1,-1.0091786E0,-1.1272031E0,2.8812456E-1,1.3498725E0,-4.179351E-1,3.3897421E0,1.1748246E0,3.2091567E-1,-4.332234E-1,-2.1792518E-1,-2.6637936E-1,3.7467217E-1,-2.9278417E0,6.1801434E0,1.1261082E-1,-1.9191279E-1,-2.492287E0,1.351582E0,-7.809192E-3,4.760742E-3,3.1643787E-1,-1.4088874E-1,-4.0197012E-1,-2.8627492E-2,-4.8577082E-1,3.453165E-1,-1.2933134E-1,2.6595798E-1,1.011328E0,2.556556E-1,1.1433256E0,-1.7717765E-1,7.058487E-1,7.8252845E-2,-1.5872031E-1,-6.625334E-3,8.273918E-1,-1.1349047E0,-5.434792E-2,2.2018068E0,5.792579E-1,-3.3516514E-1,2.6848775E-1,-2.7489665E-1,6.928385E-1,-1.3713404E0,5.825043E-4,2.9150855E-2,1.9010527E0,-2.3703674E-2,3.013711E-1],"categories":[],"categories_nodes":[],"categories_segments":[],"categories_sizes":[],"default_left":[0,0,0,0,0,0,0,0,0,0,0,0,0,0,0,0,0,0,0,0,0,0,0,0,0,0,0,0,0,0,0,0,0,0,0,0,0,0,0,0,0,0,0,0,0,0,0,0,0,0,0,0,0,0,0,0,0,0,0,0,0,0,0,0,0,0,0,0,0,0,0,0,0,0,0,0,0,0,0,0,0],"id":19,"left_children":[1,3,5,7,9,11,13,15,17,19,-1,21,23,25,27,-1,29,31,33,35,37,-1,39,-1,-1,41,43,45,47,49,51,53,55,57,-1,59,61,-1,-1,-1,63,65,67,69,71,73,75,77,79,-1,-1,-1,-1,-1,-1,-1,-1,-1,-1,-1,-1,-1,-1,-1,-1,-1,-1,-1,-1,-1,-1,-1,-1,-1,-1,-1,-1,-1,-1,-1,-1],"loss_changes":[9.220887E0,2.238668E1,3.680271E1,1.4643042E1,1.4111944E1,2.3476982E1,1.2570829E1,1.4434621E1,1.729731E1,1.6837326E1,0E0,3.299697E0,4.396824E0,4.908588E1,3.210416E1,0E0,6.9765806E0,5.8174434E0,1.2325438E1,1.7136459E0,6.2724595E0,0E0,1.1212337E-1,0E0,0E0,4.0693684E1,5.4524372E1,3.7202827E1,2.6772707E1,6.9725704E-1,2.4042377E0,2.8914967E0,4.2200923E0,1.3868877E1,0E0,2.098156E0,7.6285686E0,0E0,0E0,0E0,6.9198394E-1,5.301396E1,8.710236E0,6.0619354E-1,4.8484783E0,4.016861E1,5.7045204E1,9.3187836E1,3.0715286E1,0E0,0E0,0E0,0E0,0E0,0E0,0E0,0E0,0E0,0E0,0E0,0E0,0E0,0E0,0E0,0E0,0E0,0E0,0E0,0E0,0E0,0E0,0E0,0E0,0E0,0E0,0E0,0E0,0E0,0E0,0E0,0E0],"parents":[2147483647,0,0,1,1,2,2,3,3,4,4,5,5,6,6,7,7,8,8,9,9,11,11,12,12,13,13,14,14,16,16,17,17,18,18,19,19,20,20,22,22,25,25,26,26,27,27,28,28,29,29,30,30,31,31,32,32,33,33,35,35,36,36,40,40,41,41,42,42,43,43,44,44,45,45,46,46,47,47,48,48],"right_children":[2,4,6,8,10,12,14,16,18,20,-1,22,24,26,28,-1,30,32,34,36,38,-1,40,-1,-1,42,44,46,48,50,52,54,56,58,-1,60,62,-1,-1,-1,64,66,68,70,72,74,76,78,80,-1,-1,-1,-1,-1,-1,-1,-1,-1,-1,-1,-1,-1,-1,-1,-1,-1,-1,-1,-1,-1,-1,-1,-1,-1,-1,-1,-1,-1,-1,-1,-1],"split_conditions":[5.833554E1,5.1826836E1,6.540492E1,2.1760416E1,2.3754166E1,2.1610418E1,7.8845985E1,2.1134293E0,2E-1,1.5E0,-3.080661E-1,1E-1,1.6981165E1,2.4527082E1,8.135312E1,6.1848396E-1,1.9933332E1,1.3722565E1,5.0954075E1,1.3864674E1,2.1366667E1,2.8488743E-1,2.0660418E1,-1.0501875E0,-2.9537174E-1,2.4258337E1,2.5958336E1,2.4016665E1,8.248166E1,1.9489582E1,1.2074766E1,1.1474817E1,1.5299999E1,4.7371025E1,-4.179351E-1,1.0805998E1,2.1956251E1,3.2091567E-1,-4.332234E-1,-2.1792518E-1,2.1072916E1,2.2987501E1,2.4385414E1,2.5160418E1,2.6764585E1,2.2518751E1,2.495208E1,2.45375E1,2.3023119E1,4.760742E-3,3.1643787E-1,-1.4088874E-1,-4.0197012E-1,-2.8627492E-2,-4.8577082E-1,3.453165E-1,-1.2933134E-1,2.6595798E-1,1.011328E0,2.556556E-1,1.1433256E0,-1.7717765E-1,7.058487E-1,7.8252845E-2,-1.5872031E-1,-6.625334E-3,8.273918E-1,-1.1349047E0,-5.434792E-2,2.2018068E0,5.792579E-1,-3.3516514E-1,2.6848775E-1,-2.7489665E-1,6.928385E-1,-1.3713404E0,5.825043E-4,2.9150855E-2,1.9010527E0,-2.3703674E-2,3.013711E-1],"split_indices":[3,3,3,0,0,0,3,3,1,1,0,1,2,0,3,0,0,2,3,2,0,0,0,0,0,0,0,0,3,0,2,3,2,3,0,2,0,0,0,0,0,0,0,0,0,0,0,0,2,0,0,0,0,0,0,0,0,0,0,0,0,0,0,0,0,0,0,0,0,0,0,0,0,0,0,0,0,0,0,0,0],"split_type":[0,0,0,0,0,0,0,0,0,0,0,0,0,0,0,0,0,0,0,0,0,0,0,0,0,0,0,0,0,0,0,0,0,0,0,0,0,0,0,0,0,0,0,0,0,0,0,0,0,0,0,0,0,0,0,0,0,0,0,0,0,0,0,0,0,0,0,0,0,0,0,0,0,0,0,0,0,0,0,0,0],"sum_hessian":[5.99E2,5.6E1,5.43E2,4.7E1,9E0,1.2E1,5.31E2,1.9E1,2.8E1,8E0,1E0,6E0,6E0,6.3E1,4.68E2,1E0,1.8E1,1E1,1.8E1,6E0,2E0,1E0,5E0,4E0,2E0,5.8E1,5E0,3E1,4.38E2,2E0,1.6E1,5E0,5E0,1.7E1,1E0,4E0,2E0,1E0,1E0,2E0,3E0,5.5E1,3E0,2E0,3E0,2E1,1E1,1.4E1,4.24E2,1E0,1E0,7E0,9E0,2E0,3E0,2E0,3E0,1.5E1,2E0,1E0,3E0,1E0,1E0,1E0,2E0,4.8E1,7E0,2E0,1E0,1E0,1E0,1E0,2E0,1.6E1,4E0,5E0,5E0,1.2E1,2E0,3.97E2,2.7E1],"tree_param":{"num_deleted":"0","num_feature":"4","num_nodes":"81","size_leaf_vector":"1"}},{"base_weights":[2.5606785E-2,-1.8758329E-2,4.2520544E-1,1.6051756E-1,-1.2861569E-1,1.125466E0,-1.0713687E-1,8.355138E-2,5.340712E0,-1.9948652E-1,1.3012689E0,7.660909E-1,1.5164765E0,-1.9807214E0,1.3040921E-1,1.9346213E-1,-1.0629411E0,4.020381E-2,2.3631167E0,-1.3110295E-1,-2.5555503E0,1.8232466E0,-2.1173134E-1,3.8333562E-1,3.4451847E0,-6.812227E-1,-1.665988E-1,-1.0049843E0,4.3107635E-1,6.600929E-2,3.4613912E0,-2.101201E0,4.9753404E-1,-1.6685231E-1,1.653405E0,-3.5899992E0,2.1300411E-1,3.2581215E0,3.328901E-1,2.3236275E-1,-5.852483E-1,1.3815372E0,-3.570466E-1,4.046631E-3,1.5462866E0,-8.428428E-2,-1.2384094E0,3.1742966E0,-6.4747885E-2,4.1131333E-2,-1.2594013E0,1.6038761E0,2.1335436E-1,-8.450642E-2,-1.0711542E0,-9.176514E-2,4.1322687E-1,-3.2254958E-1,-1.1087384E-2,-9.324685E-2,-1.4518516E0,1.0600626E0,2.8215295E-1,-8.3933264E-2,2.5870058E-1,8.9078814E-2,1.5484429E-2,-2.1431322E-1,-4.904852E-2,1.02663375E-1,6.052158E-1,5.1471237E-2,-7.057502E-1,-5.9278037E-2,-4.3476453E-1,2.6897222E-1,1.0904039E0,-3.0011356E-1,1.8245536E-1],"categories":[],"categories_nodes":[],"categories_segments":[],"categories_sizes":[],"default_left":[0,0,0,0,0,0,0,0,0,0,0,0,0,0,0,0,0,0,0,0,0,0,0,0,0,0,0,0,0,0,0,0,0,0,0,0,0,0,0,0,0,0,0,0,0,0,0,0,0,0,0,0,0,0,0,0,0,0,0,0,0,0,0,0,0,0,0,0,0,0,0,0,0,0,0,0,0,0,0],"id":20,"left_children":[1,3,5,7,9,11,13,15,17,19,21,23,-1,25,27,29,31,-1,-1,33,35,37,39,41,43,-1,-1,45,47,49,51,53,55,57,-1,59,-1,61,63,65,67,69,71,-1,-1,-1,73,75,77,-1,-1,-1,-1,-1,-1,-1,-1,-1,-1,-1,-1,-1,-1,-1,-1,-1,-1,-1,-1,-1,-1,-1,-1,-1,-1,-1,-1,-1,-1],"loss_changes":[1.0644919E1,1.0675519E1,2.2487278E1,8.168593E1,3.4308857E1,3.284333E1,1.5835497E1,2.5912058E1,3.85623E1,5.1383224E1,1.3022078E1,2.431527E1,0E0,3.9256382E-1,1.1357241E1,7.7658295E1,3.020864E1,0E0,0E0,6.40561E1,3.2951477E1,2.4577103E1,9.653733E-1,1.7491438E1,1.7525848E1,0E0,0E0,8.351307E-1,3.5569565E1,5.5445835E1,3.2484222E1,2.8402E1,6.0766783E0,3.6771496E1,0E0,2.7177223E1,0E0,5.065727E-1,2.511879E0,1.968491E-2,4.6584725E-2,5.918169E0,1.5171265E1,0E0,0E0,0E0,8.106928E-1,9.357376E-1,1.5089585E1,0E0,0E0,0E0,0E0,0E0,0E0,0E0,0E0,0E0,0E0,0E0,0E0,0E0,0E0,0E0,0E0,0E0,0E0,0E0,0E0,0E0,0E0,0E0,0E0,0E0,0E0,0E0,0E0,0E0,0E0],"parents":[2147483647,0,0,1,1,2,2,3,3,4,4,5,5,6,6,7,7,8,8,9,9,10,10,11,11,13,13,14,14,15,15,16,16,19,19,20,20,21,21,22,22,23,23,24,24,27,27,28,28,29,29,30,30,31,31,32,32,33,33,35,35,37,37,38,38,39,39,40,40,41,41,42,42,46,46,47,47,48,48],"right_children":[2,4,6,8,10,12,14,16,18,20,22,24,-1,26,28,30,32,-1,-1,34,36,38,40,42,44,-1,-1,46,48,50,52,54,56,58,-1,60,-1,62,64,66,68,70,72,-1,-1,-1,74,76,78,-1,-1,-1,-1,-1,-1,-1,-1,-1,-1,-1,-1,-1,-1,-1,-1,-1,-1,-1,-1,-1,-1,-1,-1,-1,-1,-1,-1,-1,-1],"split_conditions":[9.299999E0,8.564378E1,1.2500001E1,8.532592E1,2.5397917E1,1.2400001E1,1.3E1,2.5574999E1,2.1375002E1,2.495208E1,1.7429354E1,1.734083E1,1.5164765E0,2.1145834E1,1.986875E1,2.495208E1,2.6764585E1,4.020381E-2,2.3631167E0,2.4908333E1,1.2027846E2,2.8438412E2,2.6156252E1,1.05E1,1.9489582E1,-6.812227E-1,-1.665988E-1,1.4205182E1,2.0235418E1,2.4747917E1,1.81041E1,7.7313995E1,2.8308336E1,8.8683914E1,1.653405E0,9.112744E1,2.1300411E-1,2.6341665E1,2.6764585E1,1E-1,2.6341665E1,1.237819E1,2.2564583E1,4.046631E-3,1.5462866E0,-8.428428E-2,1.9331251E1,1.9933332E1,2.1177084E1,4.1131333E-2,-1.2594013E0,1.6038761E0,2.1335436E-1,-8.450642E-2,-1.0711542E0,-9.176514E-2,4.1322687E-1,-3.2254958E-1,-1.1087384E-2,-9.324685E-2,-1.4518516E0,1.0600626E0,2.8215295E-1,-8.3933264E-2,2.5870058E-1,8.9078814E-2,1.5484429E-2,-2.1431322E-1,-4.904852E-2,1.02663375E-1,6.052158E-1,5.1471237E-2,-7.057502E-1,-5.9278037E-2,-4.3476453E-1,2.6897222E-1,1.0904039E0,-3.0011356E-1,1.8245536E-1],"split_indices":[1,3,1,3,0,1,1,0,0,0,2,2,0,0,0,0,0,0,0,0,3,3,0,1,0,0,0,2,0,0,2,3,0,3,0,3,0,0,0,1,0,2,0,0,0,0,0,0,0,0,0,0,0,0,0,0,0,0,0,0,0,0,0,0,0,0,0,0,0,0,0,0,0,0,0,0,0,0,0],"split_type":[0,0,0,0,0,0,0,0,0,0,0,0,0,0,0,0,0,0,0,0,0,0,0,0,0,0,0,0,0,0,0,0,0,0,0,0,0,0,0,0,0,0,0,0,0,0,0,0,0,0,0,0,0,0,0,0,0,0,0,0,0,0,0,0,0,0,0,0,0,0,0,0,0,0,0,0,0,0,0],"sum_hessian":[5.99E2,5.4E2,5.9E1,2.05E2,3.35E2,2.5E1,3.4E1,2.03E2,2E0,3.2E2,1.5E1,2.4E1,1E0,3E0,3.1E1,1.86E2,1.7E1,1E0,1E0,3.12E2,8E0,1.1E1,4E0,2.2E1,2E0,2E0,1E0,6E0,2.5E1,1.8E2,6E0,1E1,7E0,3.11E2,1E0,6E0,2E0,5E0,6E0,2E0,2E0,9E0,1.3E1,1E0,1E0,2E0,4E0,3E0,2.2E1,1.78E2,2E0,3E0,3E0,5E0,5E0,4E0,3E0,3.8E1,2.73E2,2E0,4E0,4E0,1E0,3E0,3E0,1E0,1E0,1E0,1E0,4E0,5E0,1.1E1,2E0,1E0,3E0,1E0,2E0,9E0,1.3E1],"tree_param":{"num_deleted":"0","num_feature":"4","num_nodes":"79","size_leaf_vector":"1"}},{"base_weights":[2.86746E-2,1.4538709E0,1.9077517E-2,1.006538E-1,7.2134185E-1,-7.501558E-1,3.6138978E-2,-2.572438E-1,-1.2823458E0,1.6005121E-2,8.561695E-1,2.2013018E-1,-7.0987535E-1,-4.2183363E-1,-9.952716E-2,-2.2689443E-2,3.465769E-1,4.020959E0,-6.3753524E-3,-9.761038E-1,9.319003E-2,2.7997615E-2,-4.3683198E-1,9.0784204E-1,-8.0265135E-2,-3.6129642E-2,1.8455613E0,-1.4588733E0,6.3988763E-1,-3.6526814E-1,-1.22783765E-1,-4.230703E-3,4.781664E-1,-1.6784896E-1,9.4645745E-1,1.8012632E-1,1.289005E0,-2.5391808E-1,9.184303E-2,-9.932313E-2,-5.173339E-1,7.466295E-2,5.651965E-1],"categories":[],"categories_nodes":[],"categories_segments":[],"categories_sizes":[],"default_left":[0,0,0,0,0,0,0,0,0,0,0,0,0,0,0,0,0,0,0,0,0,0,0,0,0,0,0,0,0,0,0,0,0,0,0,0,0,0,0,0,0,0,0],"id":21,"left_children":[1,3,5,-1,-1,7,9,11,13,15,17,-1,19,-1,-1,21,23,25,27,29,-1,31,33,35,37,-1,-1,39,41,-1,-1,-1,-1,-1,-1,-1,-1,-1,-1,-1,-1,-1,-1],"loss_changes":[8.178903E0,3.4457226E0,7.862284E0,0E0,0E0,3.0803204E0,9.644868E0,4.1093855E0,2.3941708E-1,7.324505E0,3.8242455E1,0E0,1.9333417E0,0E0,0E0,1.0780955E1,1.4447163E1,2.7215698E1,1.2197863E1,1.8599558E-1,0E0,3.0215633E1,2.6437218E1,2.4507004E1,1.0620468E1,0E0,0E0,6.271248E-1,3.9092352E0,0E0,0E0,0E0,0E0,0E0,0E0,0E0,0E0,0E0,0E0,0E0,0E0,0E0,0E0],"parents":[2147483647,0,0,1,1,2,2,5,5,6,6,7,7,8,8,9,9,10,10,12,12,15,15,16,16,17,17,18,18,19,19,21,21,22,22,23,23,24,24,27,27,28,28],"right_children":[2,4,6,-1,-1,8,10,12,14,16,18,-1,20,-1,-1,22,24,26,28,30,-1,32,34,36,38,-1,-1,40,42,-1,-1,-1,-1,-1,-1,-1,-1,-1,-1,-1,-1,-1,-1],"split_conditions":[7.4128532E0,2.1602087E1,1.8397917E1,1.006538E-1,7.2134185E-1,1.8297915E1,2.436591E1,8.3754036E1,2E-1,9.299999E0,2.4480661E1,2.2013018E-1,2.2148045E1,-4.2183363E-1,-9.952716E-2,3.7E0,1.2500001E1,1.9679167E1,8.316205E1,1.8158335E1,9.319003E-2,3.2000003E0,2.1749481E1,1.2400001E1,1.4300001E1,-3.6129642E-2,1.8455613E0,2.1254168E1,2.5397917E1,-3.6526814E-1,-1.22783765E-1,-4.230703E-3,4.781664E-1,-1.6784896E-1,9.4645745E-1,1.8012632E-1,1.289005E0,-2.5391808E-1,9.184303E-2,-9.932313E-2,-5.173339E-1,7.466295E-2,5.651965E-1],"split_indices":[2,0,0,0,0,0,2,3,1,1,2,0,2,0,0,1,1,0,3,0,0,1,2,1,1,0,0,0,0,0,0,0,0,0,0,0,0,0,0,0,0,0,0],"split_type":[0,0,0,0,0,0,0,0,0,0,0,0,0,0,0,0,0,0,0,0,0,0,0,0,0,0,0,0,0,0,0,0,0,0,0,0,0,0,0,0,0,0,0],"sum_hessian":[5.99E2,3E0,5.96E2,2E0,1E0,1.2E1,5.84E2,7E0,5E0,5.71E2,1.3E1,2E0,5E0,4E0,1E0,5.12E2,5.9E1,2E0,1.1E1,4E0,1E0,4.57E2,5.5E1,2.5E1,3.4E1,1E0,1E0,3E0,8E0,2E0,2E0,4.46E2,1.1E1,5.4E1,1E0,2.4E1,1E0,1.1E1,2.3E1,1E0,2E0,7E0,1E0],"tree_param":{"num_deleted":"0","num_feature":"4","num_nodes":"43","size_leaf_vector":"1"}},{"base_weights":[2.7602337E-2,1.5348888E-2,8.305401E-1,1.2232085E0,7.1200468E-3,-1.04621254E-1,3.338025E-1,8.0523066E-2,6.131406E-1,-9.038631E-2,1.1652603E-1,-1.0280114E-1,5.572157E-2,4.940224E-4,-1.090089E0,4.1126046E0,5.797752E-2,7.793823E-2,-8.142388E-1,5.456236E-1,-1.5055264E0,-2.0897348E-1,1.7843575E0,-2.8416831E-2,6.3232934E-1,-1.896334E-2,5.1225805E-1,-3.630269E-1,1.9229113E-1,-9.320596E-2,4.516488E-1,-5.086884E-1,3.4447563E-1,-3.1040026E-2,3.086246E-1,4.6174467E-1,-1.792175E-1],"categories":[],"categories_nodes":[],"categories_segments":[],"categories_sizes":[],"default_left":[0,0,0,0,0,0,0,0,0,0,0,0,0,0,0,0,0,0,0,0,0,0,0,0,0,0,0,0,0,0,0,0,0,0,0,0,0],"id":22,"left_children":[1,3,5,7,9,11,-1,-1,-1,13,15,-1,-1,17,19,21,23,25,27,29,31,-1,-1,33,35,-1,-1,-1,-1,-1,-1,-1,-1,-1,-1,-1,-1],"loss_changes":[5.890507E0,5.875348E0,2.4909835E0,2.5854273E0,6.293854E0,2.7100685E-1,0E0,0E0,0E0,2.8346771E1,6.480368E1,0E0,0E0,1.8172108E1,1.8489393E1,3.944744E1,1.3663675E1,6.060198E1,1.5176777E1,5.3994274E0,1.25412445E1,0E0,0E0,1.9148085E1,4.106433E1,0E0,0E0,0E0,0E0,0E0,0E0,0E0,0E0,0E0,0E0,0E0,0E0],"parents":[2147483647,0,0,1,1,2,2,3,3,4,4,5,5,9,9,10,10,13,13,14,14,15,15,16,16,17,17,18,18,19,19,20,20,23,23,24,24],"right_children":[2,4,6,8,10,12,-1,-1,-1,14,16,-1,-1,18,20,22,24,26,28,30,32,-1,-1,34,36,-1,-1,-1,-1,-1,-1,-1,-1,-1,-1,-1,-1],"split_conditions":[2.7310415E1,7.4128532E0,4.509753E1,2.1602087E1,1.5716793E1,2.8308336E1,3.338025E-1,8.0523066E-2,6.131406E-1,1.51884165E1,1.5725037E1,-1.0280114E-1,5.572157E-2,2.4016665E1,2.0658333E1,1.9191668E1,1.2027846E2,2.3366669E1,1.4581113E1,9.538144E1,6.1999993E0,-2.0897348E-1,1.7843575E0,6E0,2.2E0,-1.896334E-2,5.1225805E-1,-3.630269E-1,1.9229113E-1,-9.320596E-2,4.516488E-1,-5.086884E-1,3.4447563E-1,-3.1040026E-2,3.086246E-1,4.6174467E-1,-1.792175E-1],"split_indices":[0,2,3,0,2,0,0,0,0,2,2,0,0,0,0,0,3,0,2,3,1,0,0,1,1,0,0,0,0,0,0,0,0,0,0,0,0],"split_type":[0,0,0,0,0,0,0,0,0,0,0,0,0,0,0,0,0,0,0,0,0,0,0,0,0,0,0,0,0,0,0,0,0,0,0,0,0],"sum_hessian":[5.99E2,5.91E2,8E0,3E0,5.88E2,2E0,6E0,2E0,1E0,3.11E2,2.77E2,1E0,1E0,2.86E2,2.5E1,3E0,2.74E2,2.62E2,2.4E1,5E0,2E1,1E0,2E0,2.39E2,3.5E1,2.42E2,2E1,1.9E1,5E0,3E0,2E0,1.9E1,1E0,2.24E2,1.5E1,2E1,1.5E1],"tree_param":{"num_deleted":"0","num_feature":"4","num_nodes":"37","size_leaf_vector":"1"}},{"base_weights":[2.5376163E-2,1.1293868E-1,-7.645143E-2,4.1213483E-2,8.386626E-1,-6.186202E-1,6.0041424E-2,7.462445E-2,-7.2242707E-1,2.2151268E0,8.0368504E-2,1.7272915E0,-7.8399813E-1,1.7628872E-1,-6.393187E-1,6.983399E-1,-5.0935727E-2,-3.6527497E-1,1.750065E0,6.105856E-1,1.2049656E-1,1.4529346E0,-9.472728E-1,7.965542E-2,2.388898E0,-1.3440458E0,-2.5789526E-1,1.6894755E-1,5.323203E0,-1.2612149E0,5.6871027E-2,8.1139964E-1,-7.337977E-1,6.989146E-1,1.15230806E-1,5.211694E-1,-1.0375123E0,1.5148582E-1,-1.0703423E0,5.593851E-1,4.0785646E0,-1.768528E0,-2.0866679E-1,-1.0137166E0,2.4641094E-1,2.6485774E-1,-3.5405874E-1,4.3293955E-3,2.657272E0,-1.3547635E-1,-8.100887E-1,8.364661E-1,5.9614177E-3,-4.4980988E-1,2.9542795E-1,-4.3060017E-1,-1.0014871E-1,-1.8152643E-2,3.5344306E-1,-4.947035E-1,3.067339E-1,4.9892282E-1,-2.1923028E-1,1.3993073E0,3.48178E-1,-6.021344E-1,-8.6339094E-2,2.4301724E-1,-4.9515522E-1,-6.229591E-2,5.9415895E-1],"categories":[],"categories_nodes":[],"categories_segments":[],"categories_sizes":[],"default_left":[0,0,0,0,0,0,0,0,0,0,0,0,0,0,0,0,0,0,0,0,0,0,0,0,0,0,0,0,0,0,0,0,0,0,0,0,0,0,0,0,0,0,0,0,0,0,0,0,0,0,0,0,0,0,0,0,0,0,0,0,0,0,0,0,0,0,0,0,0,0,0],"id":23,"left_children":[1,3,5,7,9,11,13,15,-1,-1,17,19,21,23,25,27,29,31,-1,-1,-1,33,35,37,39,41,43,45,47,49,51,-1,53,-1,-1,-1,55,57,59,61,63,65,-1,67,69,-1,-1,-1,-1,-1,-1,-1,-1,-1,-1,-1,-1,-1,-1,-1,-1,-1,-1,-1,-1,-1,-1,-1,-1,-1,-1],"loss_changes":[5.3584027E0,1.6778458E1,2.0609745E1,2.4320612E1,1.4333664E2,2.3080057E1,1.8242321E1,2.2903208E1,0E0,0E0,7.135528E1,8.156681E-1,2.073375E1,4.086157E1,8.254959E0,1.1907066E2,3.1907936E1,3.1399597E1,0E0,0E0,0E0,2.853675E0,1.3914814E1,1.5444029E1,2.244865E1,1.797884E0,8.635429E0,4.4384552E1,9.368799E1,2.2082954E1,2.2682852E1,0E0,3.3052677E1,0E0,0E0,0E0,1.32379265E1,3.8159325E1,1.5007381E1,8.334972E0,1.4238815E0,1.542057E0,0E0,1.1789441E1,1.1434875E1,0E0,0E0,0E0,0E0,0E0,0E0,0E0,0E0,0E0,0E0,0E0,0E0,0E0,0E0,0E0,0E0,0E0,0E0,0E0,0E0,0E0,0E0,0E0,0E0,0E0,0E0],"parents":[2147483647,0,0,1,1,2,2,3,3,4,4,5,5,6,6,7,7,10,10,11,11,12,12,13,13,14,14,15,15,16,16,17,17,21,21,22,22,23,23,24,24,25,25,26,26,27,27,28,28,29,29,30,30,32,32,36,36,37,37,38,38,39,39,40,40,41,41,43,43,44,44],"right_children":[2,4,6,8,10,12,14,16,-1,-1,18,20,22,24,26,28,30,32,-1,-1,-1,34,36,38,40,42,44,46,48,50,52,-1,54,-1,-1,-1,56,58,60,62,64,66,-1,68,70,-1,-1,-1,-1,-1,-1,-1,-1,-1,-1,-1,-1,-1,-1,-1,-1,-1,-1,-1,-1,-1,-1,-1,-1,-1,-1],"split_conditions":[3E-1,1.3595874E2,8.000001E-1,1.300973E2,1.4530457E2,2.0293749E1,1.8367939E1,1.33649235E1,-7.2242707E-1,2.2151268E0,1.8557467E1,1.9791666E1,5.0954075E1,1.7429354E1,1.9386593E1,1.3121493E1,1.4178928E1,1.9916666E1,1.750065E0,6.105856E-1,1.2049656E-1,2.2010416E1,7.4128532E0,1.6854767E1,8.7567154E1,5E0,2E0,2.2499998E1,2.232292E1,2.2412498E1,1.4205182E1,8.1139964E-1,1E-1,6.989146E-1,1.15230806E-1,5.211694E-1,1.722742E1,1.5060956E1,2.3366669E1,3.3999999E0,1.7968472E1,2.2077082E1,-2.0866679E-1,1.9734436E1,2.1749481E1,2.6485774E-1,-3.5405874E-1,4.3293955E-3,2.657272E0,-1.3547635E-1,-8.100887E-1,8.364661E-1,5.9614177E-3,-4.4980988E-1,2.9542795E-1,-4.3060017E-1,-1.0014871E-1,-1.8152643E-2,3.5344306E-1,-4.947035E-1,3.067339E-1,4.9892282E-1,-2.1923028E-1,1.3993073E0,3.48178E-1,-6.021344E-1,-8.6339094E-2,2.4301724E-1,-4.9515522E-1,-6.229591E-2,5.9415895E-1],"split_indices":[1,3,1,3,3,0,2,2,0,0,2,0,3,2,2,2,2,0,0,0,0,0,2,2,3,1,1,0,0,0,2,0,1,0,0,0,2,2,0,1,2,0,0,2,2,0,0,0,0,0,0,0,0,0,0,0,0,0,0,0,0,0,0,0,0,0,0,0,0,0,0],"split_type":[0,0,0,0,0,0,0,0,0,0,0,0,0,0,0,0,0,0,0,0,0,0,0,0,0,0,0,0,0,0,0,0,0,0,0,0,0,0,0,0,0,0,0,0,0,0,0,0,0,0,0,0,0,0,0,0,0,0,0,0,0,0,0,0,0,0,0,0,0,0,0],"sum_hessian":[5.99E2,3.22E2,2.77E2,2.94E2,2.8E1,5.5E1,2.22E2,2.91E2,3E0,2E0,2.6E1,3E0,5.2E1,1.91E2,3.1E1,4.8E1,2.43E2,2.5E1,1E0,2E0,1E0,3E0,4.9E1,1.84E2,7E0,1E1,2.1E1,4.4E1,4E0,1.9E1,2.24E2,2E0,2.3E1,1E0,2E0,1E0,4.8E1,1.74E2,1E1,4E0,3E0,5E0,5E0,8E0,1.3E1,2.9E1,1.5E1,2E0,2E0,1.3E1,6E0,2E0,2.22E2,1.6E1,7E0,3E1,1.8E1,1.45E2,2.9E1,8E0,2E0,2E0,2E0,2E0,1E0,4E0,1E0,2E0,6E0,1.1E1,2E0],"tree_param":{"num_deleted":"0","num_feature":"4","num_nodes":"71","size_leaf_vector":"1"}},{"base_weights":[3.3532966E-2,-3.1294767E-3,3.204087E-1,2.1137169E-2,-7.709744E-1,1.8507445E0,-4.0569425E-2,6.0819197E-2,-4.5265916E-1,2.7393646E0,-8.334918E-1,1.0109317E0,-3.8197514E-1,2.198023E-2,6.345405E0,-9.167224E-1,1.719315E0,2.4205012E0,3.9857906E-1,3.447248E-1,-5.632133E-1,-8.592155E-2,3.7745452E0,5.393629E-1,-1.3728704E0,4.0589802E-2,-6.596757E-1,2.8003132E0,5.511904E-2,-2.0649436E0,4.0061265E-1,1.3461554E0,-8.855361E-1,-8.1517816E-1,2.8944695E-1,1.1993437E-1,1.4298619E0,2.0652924E0,-2.57312E-1,-3.6951618E0,-4.1620672E-1,-2.013146E-2,5.3393047E-2,2.4140702E-1,-2.9972333E-1,-1.13284454E-1,-9.896917E-1,-1.1107436E-1,2.9846922E-1,5.9742738E-2,6.1333495E-1,-3.2532197E-1,-4.3338705E-2,-7.257815E-2,-2.7768585E-1,2.6638305E-1,-7.417191E-2,1.3079351E0,-5.5007745E-2,-4.2470396E-1,3.2340476E-1,-2.4162532E-1,-1.481604E0,-1.2501316E0,3.349806E-2],"categories":[],"categories_nodes":[],"categories_segments":[],"categories_sizes":[],"default_left":[0,0,0,0,0,0,0,0,0,0,0,0,0,0,0,0,0,0,0,0,0,0,0,0,0,0,0,0,0,0,0,0,0,0,0,0,0,0,0,0,0,0,0,0,0,0,0,0,0,0,0,0,0,0,0,0,0,0,0,0,0,0,0,0,0],"id":24,"left_children":[1,3,5,7,-1,9,11,13,15,17,19,21,23,25,27,29,-1,-1,31,-1,-1,33,35,37,39,41,43,-1,-1,45,47,49,51,53,55,-1,-1,57,59,61,63,-1,-1,-1,-1,-1,-1,-1,-1,-1,-1,-1,-1,-1,-1,-1,-1,-1,-1,-1,-1,-1,-1,-1,-1],"loss_changes":[6.3115416E0,3.3253433E1,3.763949E1,9.973365E0,0E0,3.32917E1,2.0489508E1,1.1921897E2,1.2290871E2,1.2152397E2,1.0435586E1,4.276221E1,3.9997303E1,6.20453E0,5.3536232E1,5.9818325E1,0E0,0E0,1.0926445E1,0E0,0E0,3.2470903E0,1.1481045E1,2.8491829E1,4.511674E1,7.0399714E0,7.26506E0,0E0,0E0,4.248072E1,9.07246E0,3.5976267E0,4.328549E-1,2.9309988E-2,2.7891757E0,0E0,0E0,4.20755E1,2.6274939E1,1.7582985E1,3.21449E1,0E0,0E0,0E0,0E0,0E0,0E0,0E0,0E0,0E0,0E0,0E0,0E0,0E0,0E0,0E0,0E0,0E0,0E0,0E0,0E0,0E0,0E0,0E0,0E0],"parents":[2147483647,0,0,1,1,2,2,3,3,5,5,6,6,7,7,8,8,9,9,10,10,11,11,12,12,13,13,14,14,15,15,18,18,21,21,22,22,23,23,24,24,25,25,26,26,29,29,30,30,31,31,32,32,33,33,34,34,37,37,38,38,39,39,40,40],"right_children":[2,4,6,8,-1,10,12,14,16,18,20,22,24,26,28,30,-1,-1,32,-1,-1,34,36,38,40,42,44,-1,-1,46,48,50,52,54,56,-1,-1,58,60,62,64,-1,-1,-1,-1,-1,-1,-1,-1,-1,-1,-1,-1,-1,-1,-1,-1,-1,-1,-1,-1,-1,-1,-1,-1],"split_conditions":[2.4385414E1,2.4258337E1,2.4683334E1,2.3408333E1,-7.709744E-1,1.7801807E1,7.9077225E1,2.3389582E1,2.0883104E1,1E-1,8.154941E1,7.295462E1,1.6985935E1,2.3268747E1,1E-1,4E-1,1.719315E0,2.4205012E0,2.4527082E1,3.447248E-1,-5.632133E-1,1.3917154E1,2.4747917E1,9.1592964E1,2.5160418E1,2.1527084E1,7.5787285E1,2.8003132E0,5.511904E-2,1.4205182E1,1.2979984E1,5E-1,2.0000002E0,2.5679169E1,1.5299999E1,1.1993437E-1,1.4298619E0,2.5837502E1,2.5837502E1,2.4847916E1,1.7283749E1,-2.013146E-2,5.3393047E-2,2.4140702E-1,-2.9972333E-1,-1.13284454E-1,-9.896917E-1,-1.1107436E-1,2.9846922E-1,5.9742738E-2,6.1333495E-1,-3.2532197E-1,-4.3338705E-2,-7.257815E-2,-2.7768585E-1,2.6638305E-1,-7.417191E-2,1.3079351E0,-5.5007745E-2,-4.2470396E-1,3.2340476E-1,-2.4162532E-1,-1.481604E0,-1.2501316E0,3.349806E-2],"split_indices":[0,0,0,0,0,2,3,0,2,1,3,3,2,0,1,1,0,0,0,0,0,2,0,3,0,0,3,0,0,2,2,1,1,0,2,0,0,0,0,0,2,0,0,0,0,0,0,0,0,0,0,0,0,0,0,0,0,0,0,0,0,0,0,0,0],"split_type":[0,0,0,0,0,0,0,0,0,0,0,0,0,0,0,0,0,0,0,0,0,0,0,0,0,0,0,0,0,0,0,0,0,0,0,0,0,0,0,0,0,0,0,0,0,0,0,0,0,0,0,0,0,0,0,0,0,0,0,0,0,0,0,0,0],"sum_hessian":[5.99E2,5.32E2,6.7E1,5.28E2,4E0,1.2E1,5.5E1,4.88E2,4E1,9E0,3E0,1.3E1,4.2E1,4.86E2,2E0,3.8E1,2E0,2E0,7E0,1E0,2E0,1E1,3E0,2.2E1,2E1,4.74E2,1.2E1,1E0,1E0,2E1,1.8E1,4E0,3E0,3E0,7E0,1E0,2E0,7E0,1.5E1,5E0,1.5E1,2.66E2,2.08E2,2E0,1E1,9E0,1.1E1,8E0,1E1,2E0,2E0,2E0,1E0,1E0,2E0,3E0,4E0,3E0,4E0,8E0,7E0,2E0,3E0,1E0,1.4E1],"tree_param":{"num_deleted":"0","num_feature":"4","num_nodes":"65","size_leaf_vector":"1"}},{"base_weights":[3.176153E-2,3.7036097E-1,5.6118225E-3,7.939757E-2,2.1514025E0,-5.826927E-1,2.5175352E-2,1.8527862E0,-7.059031E-2,1.1451361E0,3.6426342E-1,1.03053175E-1,-1.6750152E0,-7.254616E-3,3.6618936E-1,1.3389896E-1,6.9985485E-1,-5.065746E-1,6.5071166E-1,3.2899976E-2,1.2377205E-1,-3.7695947E-1,2.3675165E-1,-5.5299616E-1,-9.9777535E-2,4.6099577E-2,-8.357813E-1,1.2973207E0,-3.1198263E-1,4.4606325E-1,-9.5123255E-1,1.2326262E0,6.865047E-2,-1.8896915E-2,-1.5073486E-1,-7.188646E-2,5.5976707E-1,-5.718851E-3,8.888406E-1,-1.9306113E0,-3.499062E-1,4.0509305E0,1.09388776E-1,-1.1569507E0,1.4915758E-1,3.2856548E-1,-1.4306888E-1,-4.0110067E-1,3.4983093E-1,-3.258829E-1,2.1079458E-1,-1.5861498E-1,3.7566863E-2,2.1287091E-1,-5.916524E-3,6.050184E-3,-5.6445307E-1,-5.9929365E-1,4.9069867E-1,-9.718142E-2,-7.0301515E-1,3.1839293E-1,-1.6322798E-1,7.709084E-2,1.4274986E0,6.828006E-1,-6.2382266E-2,-3.0343153E-2,-5.5318946E-1,2.89062E-1,-1.592145E-1],"categories":[],"categories_nodes":[],"categories_segments":[],"categories_sizes":[],"default_left":[0,0,0,0,0,0,0,0,0,0,0,0,0,0,0,0,0,0,0,0,0,0,0,0,0,0,0,0,0,0,0,0,0,0,0,0,0,0,0,0,0,0,0,0,0,0,0,0,0,0,0,0,0,0,0,0,0,0,0,0,0,0,0,0,0,0,0,0,0,0,0],"id":25,"left_children":[1,3,5,7,9,11,13,15,17,-1,19,21,23,25,27,-1,-1,29,31,-1,-1,33,35,-1,-1,37,39,41,43,45,47,-1,49,-1,-1,51,53,55,57,59,61,63,65,67,69,-1,-1,-1,-1,-1,-1,-1,-1,-1,-1,-1,-1,-1,-1,-1,-1,-1,-1,-1,-1,-1,-1,-1,-1,-1,-1],"loss_changes":[5.3104877E0,2.2112555E1,6.4368663E0,1.0238288E1,1.647078E1,1.365562E1,5.9856153E0,9.843435E-1,1.1650781E1,0E0,3.952861E-3,8.593693E-1,9.684849E-1,2.1920187E1,3.0083698E1,0E0,0E0,1.0167064E1,2.7897022E1,0E0,0E0,8.655104E-2,1.0371883E0,0E0,0E0,2.035508E1,1.5282982E1,6.497888E1,1.1082733E1,5.315455E0,1.4627941E1,0E0,1.0282148E1,0E0,0E0,6.0648024E-1,4.480387E-1,2.1403013E1,6.1471107E1,5.2096024E0,6.606328E0,1.488031E1,1.0786233E1,7.0670366E0,1.1031214E1,0E0,0E0,0E0,0E0,0E0,0E0,0E0,0E0,0E0,0E0,0E0,0E0,0E0,0E0,0E0,0E0,0E0,0E0,0E0,0E0,0E0,0E0,0E0,0E0,0E0,0E0],"parents":[2147483647,0,0,1,1,2,2,3,3,4,4,5,5,6,6,7,7,8,8,10,10,11,11,12,12,13,13,14,14,17,17,18,18,21,21,22,22,25,25,26,26,27,27,28,28,29,29,30,30,32,32,35,35,36,36,37,37,38,38,39,39,40,40,41,41,42,42,43,43,44,44],"right_children":[2,4,6,8,10,12,14,16,18,-1,20,22,24,26,28,-1,-1,30,32,-1,-1,34,36,-1,-1,38,40,42,44,46,48,-1,50,-1,-1,52,54,56,58,60,62,64,66,68,70,-1,-1,-1,-1,-1,-1,-1,-1,-1,-1,-1,-1,-1,-1,-1,-1,-1,-1,-1,-1,-1,-1,-1,-1,-1,-1],"split_conditions":[9.582358E0,9.54E0,1.0163227E1,2.019375E1,2.0000002E0,1.24806595E2,3.1106116E2,1.9983332E1,2.1866667E1,1.1451361E0,2.0599998E1,2.0737501E1,3.278608E2,2.4019098E2,1.2601285E1,1.3389896E-1,6.9985485E-1,7.5942082E0,2.1956251E1,3.2899976E-2,1.2377205E-1,1.9220835E1,9.83268E0,-5.5299616E-1,-9.9777535E-2,1.3595874E2,2.1254168E1,3.211864E2,1.5146761E1,2.4019098E2,9.085988E0,1.2326262E0,6E-1,-1.8896915E-2,-1.5073486E-1,1E-1,2.2233332E1,1.300973E2,1.2351988E1,2.0627083E1,2.1395834E1,2.0733332E1,1.0185519E1,1.3842457E1,3.7E0,3.2856548E-1,-1.4306888E-1,-4.0110067E-1,3.4983093E-1,-3.258829E-1,2.1079458E-1,-1.5861498E-1,3.7566863E-2,2.1287091E-1,-5.916524E-3,6.050184E-3,-5.6445307E-1,-5.9929365E-1,4.9069867E-1,-9.718142E-2,-7.0301515E-1,3.1839293E-1,-1.6322798E-1,7.709084E-2,1.4274986E0,6.828006E-1,-6.2382266E-2,-3.0343153E-2,-5.5318946E-1,2.89062E-1,-1.592145E-1],"split_indices":[2,2,2,0,1,3,3,0,0,0,0,0,3,3,2,0,0,2,0,0,0,0,2,0,0,3,0,3,2,3,2,0,1,0,0,1,0,3,2,0,0,0,2,2,1,0,0,0,0,0,0,0,0,0,0,0,0,0,0,0,0,0,0,0,0,0,0,0,0,0,0],"split_type":[0,0,0,0,0,0,0,0,0,0,0,0,0,0,0,0,0,0,0,0,0,0,0,0,0,0,0,0,0,0,0,0,0,0,0,0,0,0,0,0,0,0,0,0,0,0,0,0,0,0,0,0,0,0,0,0,0,0,0,0,0,0,0,0,0,0,0,0,0,0,0],"sum_hessian":[5.99E2,4.2E1,5.57E2,3.7E1,5E0,1.7E1,5.4E2,2E0,3.5E1,2E0,3E0,1.1E1,6E0,4.94E2,4.6E1,1E0,1E0,2.2E1,1.3E1,1E0,2E0,2E0,9E0,5E0,1E0,4.65E2,2.9E1,1.9E1,2.7E1,7E0,1.5E1,1E0,1.2E1,1E0,1E0,5E0,4E0,4.39E2,2.6E1,8E0,2.1E1,5E0,1.4E1,9E0,1.8E1,4E0,3E0,1.3E1,2E0,4E0,8E0,1E0,4E0,3E0,1E0,4.34E2,5E0,5E0,2.1E1,2E0,6E0,2E0,1.9E1,1E0,4E0,1E0,1.3E1,4E0,5E0,8E0,1E1],"tree_param":{"num_deleted":"0","num_feature":"4","num_nodes":"71","size_leaf_vector":"1"}},{"base_weights":[2.724998E-2,3.3802775E-1,3.2523216E-3,1.1046039E-1,1.7229497E0,-2.4896864E-2,2.89746E-1,1.5748683E0,-1.4641947E-2,9.1610897E-1,8.824572E-2,3.1007433E-2,-3.488098E-1,-3.305048E-1,6.192844E-1,1.13814145E-1,5.9487665E-1,-4.7569612E-1,4.2291683E-1,-1.6584873E-2,1.7100183E0,-7.173517E-1,1.974222E-1,2.938971E-1,-8.5941607E-1,9.4728905E-1,-7.343455E-1,-7.100736E-1,9.328825E-1,-4.53539E-1,9.7197765E-1,3.4243646E-3,-1.4111325E0,4.0040474E0,-3.7540567E-1,5.550066E-1,-8.7978816E-1,1.7112142E0,-2.3433644E-1,2.1894838E-1,-4.5706272E-2,-3.998332E-1,-1.2390323E0,1.1656365E0,5.568176E-1,-7.2816586E-1,-4.766329E-2,5.0744858E-2,-3.375293E-1,4.280272E-1,-8.23009E-3,3.857001E-1,-2.6569912E-1,8.9164215E-1,8.2419336E-2,-7.7980068E-3,5.215742E-1,-6.865934E-1,-1.2006462E-1,-6.0679466E-1,1.6036816E0,-3.4373337E-1,1.2814169E-1,8.93178E-1,-2.9078007E-1,-1.9209398E-1,1.021715E-1,-1.2782572E-1,1.4301053E-1,-2.1206944E-1,1.7032371E-1,-1.0687033E-1,-4.1120198E-1,-1.994431E-1,2.4634989E-1,-3.585655E-1,1.2626742E-1],"categories":[],"categories_nodes":[],"categories_segments":[],"categories_sizes":[],"default_left":[0,0,0,0,0,0,0,0,0,0,0,0,0,0,0,0,0,0,0,0,0,0,0,0,0,0,0,0,0,0,0,0,0,0,0,0,0,0,0,0,0,0,0,0,0,0,0,0,0,0,0,0,0,0,0,0,0,0,0,0,0,0,0,0,0,0,0,0,0,0,0,0,0,0,0,0,0],"id":26,"left_children":[1,3,5,7,9,11,13,15,17,-1,-1,19,21,23,25,-1,-1,27,29,31,33,35,37,39,41,43,45,47,49,51,53,55,57,59,-1,-1,61,63,65,-1,67,69,71,-1,73,-1,75,-1,-1,-1,-1,-1,-1,-1,-1,-1,-1,-1,-1,-1,-1,-1,-1,-1,-1,-1,-1,-1,-1,-1,-1,-1,-1,-1,-1,-1,-1],"loss_changes":[4.4736643E0,1.3361692E1,4.50724E0,6.9846926E0,1.0509951E1,9.227852E0,1.04245E1,7.1118784E-1,7.4637585E0,0E0,0E0,3.4788338E1,1.5239822E1,6.197138E0,1.5347534E1,0E0,0E0,6.6049194E0,9.584154E0,1.1836058E1,8.653213E1,2.0394207E1,2.0662374E1,1.3657498E0,1.2492447E0,2.8812798E1,8.021576E0,6.0286894E0,1.4619691E0,7.151099E0,1.5918739E1,2.1432772E1,4.406601E0,6.7408394E1,0E0,0E0,1.5437458E1,2.664104E1,6.053057E0,0E0,1.3953953E0,2.1839955E0,9.278059E-2,0E0,8.61931E0,0E0,3.7292106E0,0E0,0E0,0E0,0E0,0E0,0E0,0E0,0E0,0E0,0E0,0E0,0E0,0E0,0E0,0E0,0E0,0E0,0E0,0E0,0E0,0E0,0E0,0E0,0E0,0E0,0E0,0E0,0E0,0E0,0E0],"parents":[2147483647,0,0,1,1,2,2,3,3,4,4,5,5,6,6,7,7,8,8,11,11,12,12,13,13,14,14,17,17,18,18,19,19,20,20,21,21,22,22,23,23,24,24,25,25,26,26,27,27,28,28,29,29,30,30,31,31,32,32,33,33,36,36,37,37,38,38,40,40,41,41,42,42,44,44,46,46],"right_children":[2,4,6,8,10,12,14,16,18,-1,-1,20,22,24,26,-1,-1,28,30,32,34,36,38,40,42,44,46,48,50,52,54,56,58,60,-1,-1,62,64,66,-1,68,70,72,-1,74,-1,76,-1,-1,-1,-1,-1,-1,-1,-1,-1,-1,-1,-1,-1,-1,-1,-1,-1,-1,-1,-1,-1,-1,-1,-1,-1,-1,-1,-1,-1,-1],"split_conditions":[9.582358E0,9.54E0,9.700001E0,2.019375E1,2.0000002E0,1.7217714E2,8.145343E1,1.9983332E1,2.1629166E1,9.1610897E-1,8.824572E-2,1.3595874E2,3.128111E2,4.509753E1,2.2564583E1,1.13814145E-1,5.9487665E-1,9.085988E0,9E-1,1.300973E2,2.2599997E1,1.9916666E1,3.211864E2,1.3767352E1,2.0366667E1,1.0700003E1,1.0066665E2,7.5942082E0,2.1102085E1,2.1641665E1,1.2E0,1.2391749E2,2.0785418E1,2.019375E1,-3.7540567E-1,5.550066E-1,2.3697916E1,1.6516901E1,1.5146761E1,2.1894838E-1,4.0859028E1,2.0133333E1,1.3E1,1.1656365E0,1.986875E1,-7.2816586E-1,2.269375E1,5.0744858E-2,-3.375293E-1,4.280272E-1,-8.23009E-3,3.857001E-1,-2.6569912E-1,8.9164215E-1,8.2419336E-2,-7.7980068E-3,5.215742E-1,-6.865934E-1,-1.2006462E-1,-6.0679466E-1,1.6036816E0,-3.4373337E-1,1.2814169E-1,8.93178E-1,-2.9078007E-1,-1.9209398E-1,1.021715E-1,-1.2782572E-1,1.4301053E-1,-2.1206944E-1,1.7032371E-1,-1.0687033E-1,-4.1120198E-1,-1.994431E-1,2.4634989E-1,-3.585655E-1,1.2626742E-1],"split_indices":[2,2,1,0,1,3,3,0,0,0,0,3,3,3,0,0,0,2,1,3,0,0,3,2,0,1,3,2,0,0,1,3,0,0,0,0,0,2,2,0,3,0,1,0,0,0,0,0,0,0,0,0,0,0,0,0,0,0,0,0,0,0,0,0,0,0,0,0,0,0,0,0,0,0,0,0,0],"split_type":[0,0,0,0,0,0,0,0,0,0,0,0,0,0,0,0,0,0,0,0,0,0,0,0,0,0,0,0,0,0,0,0,0,0,0,0,0,0,0,0,0,0,0,0,0,0,0,0,0,0,0,0,0,0,0,0,0,0,0,0,0,0,0,0,0,0,0,0,0,0,0,0,0,0,0,0,0],"sum_hessian":[5.99E2,4.2E1,5.57E2,3.7E1,5E0,5.08E2,4.9E1,2E0,3.5E1,2E0,3E0,4.34E2,7.4E1,1.7E1,3.2E1,1E0,1E0,1.7E1,1.8E1,4.23E2,1.1E1,4.4E1,3E1,8E0,9E0,2.6E1,6E0,1.5E1,2E0,7E0,1.1E1,4.18E2,5E0,6E0,5E0,2E0,4.2E1,6E0,2.4E1,3E0,5E0,5E0,4E0,2E0,2.4E1,1E0,5E0,5E0,1E1,1E0,1E0,1E0,6E0,2E0,9E0,4.12E2,6E0,2E0,3E0,1E0,5E0,3.5E1,7E0,4E0,2E0,1.4E1,1E1,3E0,2E0,4E0,1E0,1E0,3E0,4E0,2E1,1E0,4E0],"tree_param":{"num_deleted":"0","num_feature":"4","num_nodes":"77","size_leaf_vector":"1"}},{"base_weights":[2.5820026E-2,1.5830916E-1,-3.549082E-2,6.347717E-2,2.3078022E0,2.2221652E-1,-1.9565724E-1,3.0695703E-2,9.044558E-1,-1.8703619E-2,6.191547E0,1.4878002E-1,3.9668424E0,-8.669488E-1,-8.082492E-2,7.137152E-2,-1.4235023E0,-3.306736E-1,2.3958857E-1,2.380528E0,4.0566817E-1,-1.6022967E-1,4.519949E-1,5.2090146E-2,1.7329891E0,-1.2036389E0,5.040076E-1,1.2013429E0,-1.7470576E-1,5.145405E-1,4.29473E-2,-5.1937735E-1,-2.8872086E-2,-3.371127E-1,2.018552E0,5.6167426E0,2.449009E-1,3.8352928E-1,-1.4625697E0,-8.5024405E-1,4.4598222E-1,-1.8285885E-1,4.006318E0,-2.6519462E-1,5.489325E-1,-1.6432233E-2,1.2734896E-1,-1.316618E-2,-6.540133E-1,2.5713578E-1,8.682837E-1,2.194474E-1,2.3080869E0,-7.18505E-1,1.0416968E-1,2.0229232E-1,-1.1693767E-1,-4.6562606E-1,1.1630402E-1,-6.218632E-2,-2.9864007E-1,1.4546311E-1,-2.4603549E-1,-4.911881E-2,2.052278E0,-9.982675E-2,2.7904013E-1,6.521817E-2,1.1764172E0],"categories":[],"categories_nodes":[],"categories_segments":[],"categories_sizes":[],"default_left":[0,0,0,0,0,0,0,0,0,0,0,0,0,0,0,0,0,0,0,0,0,0,0,0,0,0,0,0,0,0,0,0,0,0,0,0,0,0,0,0,0,0,0,0,0,0,0,0,0,0,0,0,0,0,0,0,0,0,0,0,0,0,0,0,0,0,0,0,0],"id":27,"left_children":[1,3,5,7,9,11,13,15,-1,17,19,21,23,25,27,29,31,-1,-1,-1,-1,33,35,-1,-1,37,39,41,